<?xml version="1.0"?>
<opencv_storage>
<opencv_ml_svm>
  <format>3</format>
  <svmType>C_SVC</svmType>
  <kernel>
    <type>RBF</type>
    <gamma>1.</gamma></kernel>
  <C>50.</C>
  <term_criteria><epsilon>1.1920928955078125e-07</epsilon>
    <iterations>1000</iterations></term_criteria>
  <var_count>12</var_count>
  <class_count>2</class_count>
  <class_labels type_id="opencv-matrix">
    <rows>2</rows>
    <cols>1</cols>
    <dt>i</dt>
    <data>
      -1 1</data></class_labels>
  <sv_total>422</sv_total>
  <support_vectors>
    <_>
      1.73913047e-01 6.52173907e-02 1.73913047e-01 1.08695656e-01
      2.17391308e-02 6.52173907e-02 8.69565234e-02 2.17391308e-02
      2.17391308e-02 1.30434781e-01 8.69565234e-02 4.34782617e-02</_>
    <_>
      1.19402982e-01 1.04477607e-01 1.34328350e-01 7.46268630e-02
      2.98507456e-02 2.98507456e-02 2.98507456e-02 1.04477607e-01
      4.47761193e-02 8.95522386e-02 1.34328350e-01 1.04477607e-01</_>
    <_>
      1.55555561e-01 8.88888910e-02 8.88888910e-02 1.11111112e-01
      4.44444455e-02 2.22222228e-02 1.33333340e-01 4.44444455e-02
      8.88888910e-02 8.88888910e-02 8.88888910e-02 4.44444455e-02</_>
    <_>
      1.42857149e-01 2.85714287e-02 1.42857149e-01 2.85714287e-02
      1.14285715e-01 2.85714287e-02 8.57142881e-02 2.85714287e-02
      1.14285715e-01 1.14285715e-01 5.71428575e-02 1.14285715e-01</_>
    <_>
      2.08333340e-02 6.25000000e-02 6.25000000e-02 8.33333358e-02
      8.33333358e-02 1.45833343e-01 2.29166672e-01 6.25000000e-02
      4.16666679e-02 8.33333358e-02 1.25000000e-01 0.</_>
    <_>
      4.25531901e-02 6.38297871e-02 6.38297871e-02 1.27659574e-01
      6.38297871e-02 1.91489354e-01 1.91489354e-01 6.38297871e-02
      4.25531901e-02 6.38297871e-02 4.25531901e-02 4.25531901e-02</_>
    <_>
      0. 3.44827585e-02 0. 1.72413796e-01 3.44827585e-02 3.44827585e-02
      1.03448272e-01 2.41379306e-01 1.72413796e-01 1.03448272e-01
      1.03448272e-01 0.</_>
    <_>
      6.81818202e-02 4.54545468e-02 9.09090936e-02 1.13636367e-01
      4.54545468e-02 9.09090936e-02 1.13636367e-01 1.36363640e-01
      1.13636367e-01 1.59090906e-01 0. 2.27272734e-02</_>
    <_>
      6.81818202e-02 1.13636367e-01 2.27272734e-02 4.54545468e-02
      6.81818202e-02 9.09090936e-02 6.81818202e-02 1.81818187e-01
      9.09090936e-02 6.81818202e-02 1.36363640e-01 4.54545468e-02</_>
    <_>
      6.94444478e-02 1.11111112e-01 9.72222239e-02 1.38888896e-01
      6.94444478e-02 1.38888890e-02 2.77777780e-02 5.55555560e-02
      1.25000000e-01 9.72222239e-02 1.66666672e-01 2.77777780e-02</_>
    <_>
      7.14285746e-02 7.14285746e-02 9.52380970e-02 7.14285746e-02
      1.19047619e-01 9.52380970e-02 1.42857149e-01 7.14285746e-02
      2.38095243e-02 1.42857149e-01 4.76190485e-02 4.76190485e-02</_>
    <_>
      1.04166672e-01 6.25000000e-02 8.33333358e-02 1.04166672e-01
      8.33333358e-02 2.08333340e-02 4.16666679e-02 1.45833343e-01
      8.33333358e-02 1.04166672e-01 1.25000000e-01 4.16666679e-02</_>
    <_>
      2.32558139e-02 2.32558139e-02 6.97674453e-02 6.97674453e-02
      4.65116277e-02 1.39534891e-01 1.39534891e-01 1.39534891e-01
      2.09302321e-01 6.97674453e-02 4.65116277e-02 2.32558139e-02</_>
    <_>
      8.33333358e-02 1.25000000e-01 8.33333358e-02 1.04166672e-01
      8.33333358e-02 4.16666679e-02 1.04166672e-01 6.25000000e-02
      4.16666679e-02 4.16666679e-02 8.33333358e-02 1.45833343e-01</_>
    <_>
      4.76190485e-02 9.52380970e-02 4.76190485e-02 1.42857149e-01
      9.52380970e-02 2.38095243e-02 7.14285746e-02 9.52380970e-02
      1.66666672e-01 9.52380970e-02 2.38095243e-02 9.52380970e-02</_>
    <_>
      1.40845060e-01 8.45070407e-02 7.04225302e-02 7.04225302e-02
      9.85915512e-02 8.45070407e-02 9.85915512e-02 5.63380271e-02
      1.12676054e-01 8.45070407e-02 5.63380271e-02 4.22535203e-02</_>
    <_>
      6.81818202e-02 2.27272734e-02 4.54545468e-02 6.81818202e-02 0.
      2.04545468e-01 0. 2.95454562e-01 1.36363640e-01 9.09090936e-02
      4.54545468e-02 2.27272734e-02</_>
    <_>
      8.43373463e-02 9.63855386e-02 7.22891539e-02 1.32530123e-01
      8.43373463e-02 1.08433731e-01 1.20481923e-01 8.43373463e-02
      7.22891539e-02 7.22891539e-02 4.81927693e-02 2.40963846e-02</_>
    <_>
      9.75609720e-02 6.09756075e-02 1.34146333e-01 7.31707290e-02
      1.58536583e-01 1.21951215e-02 1.21951215e-02 7.31707290e-02
      1.21951215e-01 1.34146333e-01 8.53658468e-02 3.65853645e-02</_>
    <_>
      2.08333340e-02 1.04166672e-01 6.25000000e-02 2.08333343e-01
      2.08333340e-02 8.33333358e-02 1.04166672e-01 8.33333358e-02
      6.25000000e-02 1.25000000e-01 1.04166672e-01 2.08333340e-02</_>
    <_>
      1.13207549e-01 7.54716992e-02 5.66037744e-02 1.13207549e-01
      3.77358496e-02 7.54716992e-02 9.43396240e-02 3.77358496e-02
      2.07547173e-01 1.13207549e-01 3.77358496e-02 3.77358496e-02</_>
    <_>
      5.17241359e-02 5.17241359e-02 6.89655170e-02 5.17241359e-02
      1.72413792e-02 1.03448272e-01 6.89655170e-02 8.62068981e-02
      2.41379306e-01 8.62068981e-02 8.62068981e-02 8.62068981e-02</_>
    <_>
      3.07692308e-02 6.15384616e-02 1.53846154e-02 1.07692309e-01
      6.15384616e-02 1.07692309e-01 1.07692309e-01 1.07692309e-01
      3.07692319e-01 1.53846154e-02 4.61538471e-02 3.07692308e-02</_>
    <_>
      1.00000001e-01 7.50000030e-02 1.50000006e-01 1.50000006e-01
      5.00000007e-02 1.50000006e-01 7.50000030e-02 2.50000004e-02
      5.00000007e-02 7.50000030e-02 5.00000007e-02 5.00000007e-02</_>
    <_>
      0. 0. 5.71428575e-02 8.57142881e-02 1.42857149e-01 2.28571430e-01
      1.14285715e-01 5.71428575e-02 1.71428576e-01 1.14285715e-01 0.
      2.85714287e-02</_>
    <_>
      7.50000030e-02 1.25000000e-01 2.50000004e-02 1.00000001e-01
      7.50000030e-02 5.00000007e-02 1.74999997e-01 2.50000004e-02
      5.00000007e-02 1.00000001e-01 1.25000000e-01 7.50000030e-02</_>
    <_>
      6.38297871e-02 2.12765951e-02 4.25531901e-02 1.27659574e-01
      6.38297871e-02 1.48936167e-01 2.12765947e-01 1.27659574e-01
      6.38297871e-02 8.51063803e-02 2.12765951e-02 2.12765951e-02</_>
    <_>
      7.14285746e-02 8.57142881e-02 5.71428575e-02 1.57142863e-01
      2.85714287e-02 1.14285715e-01 7.14285746e-02 1.42857149e-01
      1.42857149e-01 4.28571440e-02 4.28571440e-02 4.28571440e-02</_>
    <_>
      9.75609720e-02 9.75609720e-02 1.46341458e-01 2.43902430e-02
      1.21951215e-01 0. 7.31707290e-02 7.31707290e-02 1.70731694e-01
      2.43902430e-02 1.21951215e-01 4.87804860e-02</_>
    <_>
      7.69230798e-02 1.53846160e-01 3.07692308e-02 1.23076923e-01
      4.61538471e-02 6.15384616e-02 3.07692308e-02 9.23076943e-02
      1.53846160e-01 7.69230798e-02 1.23076923e-01 3.07692308e-02</_>
    <_>
      7.14285746e-02 0. 3.57142873e-02 3.57142873e-02 3.57142873e-02
      1.07142866e-01 1.42857149e-01 2.14285731e-01 1.78571433e-01
      7.14285746e-02 0. 1.07142866e-01</_>
    <_>
      6.89655170e-02 8.62068981e-02 2.06896544e-01 5.17241359e-02
      6.89655170e-02 3.44827585e-02 1.03448272e-01 6.89655170e-02
      1.55172408e-01 5.17241359e-02 3.44827585e-02 6.89655170e-02</_>
    <_>
      6.45161271e-02 9.67741907e-02 3.22580636e-02 1.29032254e-01
      1.45161286e-01 6.45161271e-02 6.45161271e-02 3.22580636e-02
      1.61290318e-02 2.09677413e-01 1.29032254e-01 1.61290318e-02</_>
    <_>
      1.12903222e-01 6.45161271e-02 8.06451589e-02 6.45161271e-02
      8.06451589e-02 1.29032254e-01 8.06451589e-02 6.45161271e-02
      1.12903222e-01 6.45161271e-02 4.83870953e-02 9.67741907e-02</_>
    <_>
      0. 1.07142866e-01 0. 1.42857149e-01 7.14285746e-02 7.14285746e-02
      2.14285731e-01 7.14285746e-02 7.14285746e-02 0. 1.07142866e-01
      1.42857149e-01</_>
    <_>
      4.54545468e-02 6.81818202e-02 1.13636367e-01 1.81818187e-01
      2.27272734e-02 1.81818187e-01 6.81818202e-02 4.54545468e-02
      1.59090906e-01 0. 6.81818202e-02 4.54545468e-02</_>
    <_>
      5.66037744e-02 5.66037744e-02 7.54716992e-02 7.54716992e-02
      5.66037744e-02 9.43396240e-02 1.13207549e-01 1.13207549e-01
      1.32075474e-01 5.66037744e-02 1.13207549e-01 5.66037744e-02</_>
    <_>
      8.77192989e-02 3.50877196e-02 5.26315793e-02 1.57894731e-01
      5.26315793e-02 1.05263159e-01 5.26315793e-02 8.77192989e-02
      1.57894731e-01 1.57894731e-01 3.50877196e-02 1.75438598e-02</_>
    <_>
      1.35593221e-01 3.38983051e-02 8.47457647e-02 1.35593221e-01
      1.69491526e-02 6.77966103e-02 1.52542368e-01 1.01694912e-01
      6.77966103e-02 1.01694912e-01 8.47457647e-02 1.69491526e-02</_>
    <_>
      8.13953504e-02 1.27906978e-01 9.30232555e-02 9.30232555e-02
      1.16279069e-02 6.97674453e-02 3.48837227e-02 8.13953504e-02
      2.09302321e-01 8.13953504e-02 8.13953504e-02 3.48837227e-02</_>
    <_>
      8.77192989e-02 7.01754391e-02 8.77192989e-02 5.26315793e-02
      7.01754391e-02 1.57894731e-01 1.40350878e-01 8.77192989e-02
      8.77192989e-02 7.01754391e-02 3.50877196e-02 5.26315793e-02</_>
    <_>
      7.46268630e-02 1.04477607e-01 7.46268630e-02 1.79104477e-01
      4.47761193e-02 2.98507456e-02 8.95522386e-02 8.95522386e-02
      7.46268630e-02 1.19402982e-01 4.47761193e-02 7.46268630e-02</_>
    <_>
      0. 3.79746854e-02 1.01265825e-01 1.13924056e-01 2.53164563e-02
      1.13924056e-01 1.26582280e-01 1.39240503e-01 2.27848113e-01
      1.01265825e-01 1.26582282e-02 0.</_>
    <_>
      5.17241359e-02 3.44827585e-02 1.20689653e-01 8.62068981e-02 0.
      1.89655170e-01 1.72413796e-01 6.89655170e-02 1.03448272e-01
      8.62068981e-02 6.89655170e-02 1.72413792e-02</_>
    <_>
      7.99999982e-02 9.33333337e-02 2.26666674e-01 7.99999982e-02
      6.66666701e-02 3.99999991e-02 5.33333346e-02 1.33333337e-02
      1.33333340e-01 6.66666701e-02 1.20000005e-01 2.66666673e-02</_>
    <_>
      8.33333358e-02 6.25000000e-02 1.04166672e-01 1.45833343e-01
      8.33333358e-02 2.08333340e-02 8.33333358e-02 2.08333340e-02
      6.25000000e-02 8.33333358e-02 8.33333358e-02 1.66666672e-01</_>
    <_>
      9.80392173e-02 3.92156877e-02 1.37254909e-01 1.96078438e-02
      3.92156877e-02 9.80392173e-02 9.80392173e-02 1.37254909e-01
      1.37254909e-01 5.88235334e-02 5.88235334e-02 7.84313753e-02</_>
    <_>
      2.70270277e-02 2.70270277e-02 4.05405425e-02 8.10810849e-02
      4.05405425e-02 1.35135144e-01 2.16216221e-01 8.10810849e-02
      1.21621624e-01 9.45945978e-02 9.45945978e-02 4.05405425e-02</_>
    <_>
      6.12244904e-02 0. 6.12244904e-02 8.16326514e-02 0. 1.42857134e-01
      1.63265303e-01 8.16326514e-02 1.63265303e-01 2.24489793e-01
      2.04081628e-02 0.</_>
    <_>
      0. 1.11111112e-01 1.85185187e-02 1.29629627e-01 9.25925970e-02
      1.48148149e-01 1.29629627e-01 1.29629627e-01 1.48148149e-01
      5.55555560e-02 3.70370373e-02 0.</_>
    <_>
      6.81818202e-02 9.09090936e-02 1.59090906e-01 1.13636367e-01
      4.54545468e-02 6.81818202e-02 9.09090936e-02 6.81818202e-02
      1.13636367e-01 6.81818202e-02 9.09090936e-02 2.27272734e-02</_>
    <_>
      9.67741907e-02 1.29032254e-01 1.61290318e-01 4.83870953e-02
      4.83870953e-02 1.61290318e-02 3.22580636e-02 8.06451589e-02
      1.61290318e-01 3.22580636e-02 6.45161271e-02 1.29032254e-01</_>
    <_>
      4.87804860e-02 4.87804860e-02 1.21951215e-01 1.46341458e-01
      2.43902430e-02 7.31707290e-02 1.21951215e-01 9.75609720e-02
      7.31707290e-02 1.21951215e-01 7.31707290e-02 4.87804860e-02</_>
    <_>
      3.57142873e-02 3.57142873e-02 3.57142873e-02 1.07142866e-01 0.
      1.42857149e-01 2.50000000e-01 1.07142866e-01 1.07142866e-01
      1.07142866e-01 3.57142873e-02 3.57142873e-02</_>
    <_>
      6.97674453e-02 9.30232555e-02 1.39534891e-01 9.30232555e-02
      9.30232555e-02 6.97674453e-02 9.30232555e-02 9.30232555e-02
      1.39534891e-01 0. 9.30232555e-02 2.32558139e-02</_>
    <_>
      1.34615391e-01 5.76923117e-02 1.53846160e-01 1.92307696e-01 0.
      7.69230798e-02 1.15384623e-01 1.92307699e-02 5.76923117e-02
      7.69230798e-02 7.69230798e-02 3.84615399e-02</_>
    <_>
      5.26315793e-02 5.26315793e-02 5.26315793e-02 1.05263159e-01
      5.26315793e-02 1.57894731e-01 1.57894731e-01 1.57894731e-01
      7.89473653e-02 2.63157897e-02 5.26315793e-02 5.26315793e-02</_>
    <_>
      6.66666701e-02 8.88888910e-02 4.44444455e-02 1.33333340e-01 0.
      4.44444455e-02 6.66666701e-02 1.11111112e-01 2.22222224e-01
      1.33333340e-01 2.22222228e-02 6.66666701e-02</_>
    <_>
      7.14285746e-02 1.42857149e-01 1.07142866e-01 1.07142866e-01
      1.78571437e-02 1.07142866e-01 8.92857164e-02 1.07142866e-01
      1.25000000e-01 1.78571437e-02 7.14285746e-02 3.57142873e-02</_>
    <_>
      1.63265303e-01 1.02040812e-01 8.16326514e-02 8.16326514e-02
      4.08163257e-02 8.16326514e-02 4.08163257e-02 6.12244904e-02
      1.42857134e-01 1.22448981e-01 4.08163257e-02 4.08163257e-02</_>
    <_>
      4.25531901e-02 6.38297871e-02 1.06382973e-01 4.25531901e-02
      6.38297871e-02 8.51063803e-02 6.38297871e-02 1.06382973e-01
      1.70212761e-01 8.51063803e-02 2.12765951e-02 1.48936167e-01</_>
    <_>
      5.88235296e-02 5.88235296e-02 5.88235296e-02 8.82352963e-02
      1.02941178e-01 1.47058824e-02 1.47058824e-02 1.32352948e-01
      1.17647059e-01 1.61764711e-01 1.47058830e-01 4.41176482e-02</_>
    <_>
      2.63157897e-02 2.63157897e-02 2.63157897e-02 2.10526317e-01
      1.57894731e-01 1.57894731e-01 0. 5.26315793e-02 1.57894731e-01
      1.05263159e-01 7.89473653e-02 0.</_>
    <_>
      7.35294148e-02 8.82352963e-02 1.17647059e-01 4.41176482e-02
      1.17647059e-01 2.94117648e-02 1.32352948e-01 2.94117648e-02
      1.61764711e-01 2.94117648e-02 1.32352948e-01 4.41176482e-02</_>
    <_>
      7.14285746e-02 2.38095243e-02 4.76190485e-02 3.09523821e-01
      7.14285746e-02 9.52380970e-02 1.42857149e-01 4.76190485e-02
      4.76190485e-02 4.76190485e-02 9.52380970e-02 0.</_>
    <_>
      1.28205135e-01 2.56410260e-02 1.53846160e-01 2.56410260e-02
      5.12820520e-02 1.28205135e-01 1.53846160e-01 2.56410260e-02
      2.56410260e-02 1.02564104e-01 7.69230798e-02 1.02564104e-01</_>
    <_>
      1.35593221e-01 3.38983051e-02 1.01694912e-01 1.86440676e-01
      1.69491526e-02 1.35593221e-01 6.77966103e-02 5.08474559e-02
      1.18644066e-01 6.77966103e-02 1.69491526e-02 6.77966103e-02</_>
    <_>
      1.28205130e-02 0. 2.56410260e-02 2.69230783e-01 3.84615399e-02
      1.28205130e-02 1.28205130e-02 2.17948720e-01 2.69230783e-01
      1.15384616e-01 1.28205130e-02 1.28205130e-02</_>
    <_>
      5.26315793e-02 8.77192989e-02 5.26315793e-02 8.77192989e-02
      3.50877196e-02 8.77192989e-02 1.75438598e-02 2.10526317e-01
      5.26315793e-02 2.28070170e-01 7.01754391e-02 1.75438598e-02</_>
    <_>
      1.56862751e-01 5.88235334e-02 3.92156877e-02 1.96078438e-02
      1.96078438e-02 1.76470593e-01 5.88235334e-02 1.17647067e-01
      1.96078435e-01 3.92156877e-02 3.92156877e-02 7.84313753e-02</_>
    <_>
      8.33333358e-02 1.38888896e-01 9.72222239e-02 6.94444478e-02
      6.94444478e-02 1.38888896e-01 2.77777780e-02 6.94444478e-02
      1.52777776e-01 2.77777780e-02 1.11111112e-01 1.38888890e-02</_>
    <_>
      8.16326514e-02 6.12244904e-02 4.08163257e-02 1.63265303e-01
      6.12244904e-02 1.42857134e-01 2.04081625e-01 2.04081628e-02
      4.08163257e-02 8.16326514e-02 1.02040812e-01 0.</_>
    <_>
      7.14285746e-02 8.92857164e-02 5.35714328e-02 3.57142873e-02
      5.35714328e-02 3.57142873e-02 1.25000000e-01 1.60714298e-01
      1.78571433e-01 8.92857164e-02 3.57142873e-02 7.14285746e-02</_>
    <_>
      1.27659574e-01 6.38297871e-02 1.48936167e-01 6.38297871e-02
      4.25531901e-02 6.38297871e-02 6.38297871e-02 4.25531901e-02
      1.48936167e-01 6.38297871e-02 6.38297871e-02 1.06382973e-01</_>
    <_>
      1.73913047e-01 7.24637657e-02 1.30434781e-01 0. 4.34782617e-02
      2.89855078e-02 2.89855078e-02 1.44927531e-01 1.73913047e-01
      1.44927539e-02 1.01449281e-01 8.69565234e-02</_>
    <_>
      2.85714287e-02 5.71428575e-02 0. 2.85714287e-02 2.00000003e-01 0.
      1.42857149e-01 0. 2.28571430e-01 2.00000003e-01 1.14285715e-01 0.</_>
    <_>
      5.88235296e-02 8.82352963e-02 1.02941178e-01 4.41176482e-02
      4.41176482e-02 2.94117648e-02 8.82352963e-02 8.82352963e-02
      2.20588237e-01 4.41176482e-02 1.17647059e-01 7.35294148e-02</_>
    <_>
      4.08163257e-02 4.08163257e-02 2.04081628e-02 2.04081625e-01
      2.04081628e-02 8.16326514e-02 6.12244904e-02 1.22448981e-01
      1.83673471e-01 4.08163257e-02 1.22448981e-01 6.12244904e-02</_>
    <_>
      7.99999982e-02 1.79999992e-01 7.99999982e-02 7.99999982e-02
      5.99999987e-02 3.99999991e-02 3.99999991e-02 7.99999982e-02
      1.19999997e-01 1.59999996e-01 1.99999996e-02 5.99999987e-02</_>
    <_>
      4.16666679e-02 1.04166672e-01 4.16666679e-02 1.04166672e-01
      2.08333340e-02 1.25000000e-01 8.33333358e-02 1.25000000e-01
      2.29166672e-01 6.25000000e-02 4.16666679e-02 2.08333340e-02</_>
    <_>
      8.92857164e-02 7.14285746e-02 8.92857164e-02 1.07142866e-01
      5.35714328e-02 1.42857149e-01 8.92857164e-02 5.35714328e-02
      8.92857164e-02 7.14285746e-02 8.92857164e-02 5.35714328e-02</_>
    <_>
      4.16666679e-02 6.25000000e-02 1.25000000e-01 1.04166672e-01
      2.08333340e-02 2.08333340e-02 4.16666679e-02 2.50000000e-01
      2.08333343e-01 1.04166672e-01 0. 2.08333340e-02</_>
    <_>
      4.61538471e-02 1.69230774e-01 1.84615389e-01 9.23076943e-02
      1.53846154e-02 6.15384616e-02 3.07692308e-02 4.61538471e-02
      7.69230798e-02 6.15384616e-02 1.53846160e-01 6.15384616e-02</_>
    <_>
      5.12820520e-02 2.56410260e-02 7.69230798e-02 7.69230798e-02
      7.69230798e-02 1.02564104e-01 1.28205135e-01 5.12820520e-02
      1.79487184e-01 2.56410260e-02 5.12820520e-02 1.53846160e-01</_>
    <_>
      6.55737668e-02 9.83606502e-02 6.55737668e-02 2.13114738e-01
      6.55737668e-02 0. 1.63934417e-02 3.27868834e-02 1.80327863e-01
      6.55737668e-02 1.63934410e-01 3.27868834e-02</_>
    <_>
      8.47457647e-02 1.01694912e-01 5.08474559e-02 1.35593221e-01
      5.08474559e-02 8.47457647e-02 8.47457647e-02 1.18644066e-01
      1.18644066e-01 5.08474559e-02 5.08474559e-02 6.77966103e-02</_>
    <_>
      1.14754096e-01 4.91803251e-02 6.55737668e-02 9.83606502e-02
      3.27868834e-02 2.62295067e-01 3.27868834e-02 9.83606502e-02
      3.27868834e-02 9.83606502e-02 6.55737668e-02 4.91803251e-02</_>
    <_>
      5.99999987e-02 1.19999997e-01 1.79999992e-01 1.99999996e-02
      9.99999940e-02 1.99999996e-02 3.99999991e-02 5.99999987e-02
      1.79999992e-01 3.99999991e-02 1.19999997e-01 5.99999987e-02</_>
    <_>
      2.38095243e-02 1.42857149e-01 7.14285746e-02 1.66666672e-01
      9.52380970e-02 7.14285746e-02 1.42857149e-01 7.14285746e-02
      9.52380970e-02 7.14285746e-02 4.76190485e-02 0.</_>
    <_>
      1.15384623e-01 9.61538479e-02 7.69230798e-02 9.61538479e-02
      7.69230798e-02 1.34615391e-01 1.92307699e-02 5.76923117e-02
      7.69230798e-02 1.15384623e-01 7.69230798e-02 5.76923117e-02</_>
    <_>
      1.73913047e-01 6.52173907e-02 8.69565234e-02 2.17391308e-02
      1.08695656e-01 4.34782617e-02 8.69565234e-02 8.69565234e-02
      1.73913047e-01 2.17391308e-02 2.17391308e-02 1.08695656e-01</_>
    <_>
      2.22222228e-02 6.66666701e-02 4.44444455e-02 6.66666701e-02
      2.22222228e-02 2.00000003e-01 1.55555561e-01 1.77777782e-01
      6.66666701e-02 6.66666701e-02 4.44444455e-02 6.66666701e-02</_>
    <_>
      4.34782617e-02 0. 4.34782617e-02 2.39130437e-01 1.30434781e-01
      1.52173921e-01 6.52173907e-02 2.17391308e-02 1.08695656e-01
      1.08695656e-01 6.52173907e-02 2.17391308e-02</_>
    <_>
      1.13207549e-01 7.54716992e-02 1.13207549e-01 5.66037744e-02
      1.13207549e-01 1.88679248e-02 1.88679248e-02 1.13207549e-01
      1.69811323e-01 3.77358496e-02 1.32075474e-01 3.77358496e-02</_>
    <_>
      0. 1.00000001e-01 5.00000007e-02 2.50000000e-01 7.50000030e-02
      1.25000000e-01 5.00000007e-02 2.50000004e-02 1.00000001e-01
      7.50000030e-02 5.00000007e-02 1.00000001e-01</_>
    <_>
      3.63636352e-02 5.45454547e-02 3.63636352e-02 2.72727251e-01
      3.63636352e-02 7.27272704e-02 5.45454547e-02 5.45454547e-02
      7.27272704e-02 1.99999988e-01 7.27272704e-02 3.63636352e-02</_>
    <_>
      9.80392173e-02 1.17647067e-01 1.17647067e-01 1.37254909e-01
      5.88235334e-02 1.96078438e-02 3.92156877e-02 5.88235334e-02
      1.37254909e-01 3.92156877e-02 1.76470593e-01 0.</_>
    <_>
      9.09090862e-02 1.81818176e-02 3.63636352e-02 1.09090909e-01
      3.63636352e-02 9.09090862e-02 2.36363634e-01 2.36363634e-01
      3.63636352e-02 9.09090862e-02 0. 1.81818176e-02</_>
    <_>
      4.34782617e-02 8.69565234e-02 6.52173907e-02 1.52173921e-01
      6.52173907e-02 1.52173921e-01 1.30434781e-01 2.17391308e-02
      6.52173907e-02 1.30434781e-01 6.52173907e-02 2.17391308e-02</_>
    <_>
      9.09090936e-02 4.54545468e-02 4.54545468e-02 1.36363640e-01 0.
      9.09090936e-02 2.72727281e-01 1.36363640e-01 4.54545468e-02 0.
      4.54545468e-02 9.09090936e-02</_>
    <_>
      1.78571437e-02 1.78571437e-02 3.57142873e-02 1.60714298e-01
      7.14285746e-02 1.07142866e-01 1.96428582e-01 5.35714328e-02
      1.25000000e-01 3.57142873e-02 1.07142866e-01 7.14285746e-02</_>
    <_>
      7.40740746e-02 7.40740746e-02 1.85185187e-02 2.03703701e-01
      5.55555560e-02 1.11111112e-01 1.11111112e-01 7.40740746e-02
      7.40740746e-02 9.25925970e-02 9.25925970e-02 1.85185187e-02</_>
    <_>
      5.71428575e-02 8.57142881e-02 2.85714287e-02 1.14285715e-01
      2.85714287e-02 8.57142881e-02 1.14285715e-01 0. 1.14285715e-01
      2.00000003e-01 1.14285715e-01 5.71428575e-02</_>
    <_>
      1.42857149e-01 1.42857149e-01 1.14285715e-01 1.00000001e-01
      5.71428575e-02 4.28571440e-02 7.14285746e-02 1.42857149e-01
      1.14285715e-01 2.85714287e-02 2.85714287e-02 1.42857144e-02</_>
    <_>
      5.55555560e-02 5.55555560e-02 5.55555560e-02 1.66666672e-01 0.
      2.77777780e-02 8.33333358e-02 1.66666672e-01 1.38888896e-01
      1.94444448e-01 2.77777780e-02 2.77777780e-02</_>
    <_>
      3.77358496e-02 9.43396240e-02 9.43396240e-02 1.13207549e-01
      1.32075474e-01 0. 5.66037744e-02 9.43396240e-02 1.32075474e-01
      5.66037744e-02 1.69811323e-01 1.88679248e-02</_>
    <_>
      7.84313753e-02 1.17647067e-01 2.15686277e-01 1.37254909e-01
      3.92156877e-02 9.80392173e-02 3.92156877e-02 3.92156877e-02
      5.88235334e-02 3.92156877e-02 1.37254909e-01 0.</_>
    <_>
      1.32352948e-01 1.02941178e-01 1.17647059e-01 1.47058830e-01
      8.82352963e-02 1.47058824e-02 1.47058824e-02 4.41176482e-02
      1.02941178e-01 7.35294148e-02 8.82352963e-02 7.35294148e-02</_>
    <_>
      6.55737668e-02 1.47540972e-01 8.19672048e-02 1.47540972e-01
      8.19672048e-02 1.63934417e-02 3.27868834e-02 6.55737668e-02
      1.14754096e-01 1.80327863e-01 6.55737668e-02 0.</_>
    <_>
      1.06060609e-01 4.54545468e-02 9.09090936e-02 6.06060624e-02
      7.57575780e-02 1.21212125e-01 1.96969703e-01 3.03030312e-02
      4.54545468e-02 1.06060609e-01 9.09090936e-02 3.03030312e-02</_>
    <_>
      1.11111119e-01 9.52381045e-02 6.34920672e-02 7.93650821e-02
      1.26984134e-01 1.26984134e-01 6.34920672e-02 1.26984134e-01
      1.26984134e-01 3.17460336e-02 3.17460336e-02 1.58730168e-02</_>
    <_>
      1.36986300e-02 1.36986300e-01 1.09589040e-01 1.91780820e-01
      5.47945201e-02 0. 1.36986300e-02 9.58904102e-02 1.36986300e-01
      8.21917802e-02 9.58904102e-02 6.84931502e-02</_>
    <_>
      2.04081628e-02 8.16326514e-02 1.22448981e-01 4.08163257e-02
      6.12244904e-02 4.08163257e-02 1.83673471e-01 1.63265303e-01
      1.63265303e-01 4.08163257e-02 6.12244904e-02 2.04081628e-02</_>
    <_>
      8.10810849e-02 2.70270277e-02 8.10810849e-02 8.10810849e-02
      2.70270277e-02 0. 2.70270277e-02 3.24324340e-01 2.16216221e-01
      5.40540554e-02 5.40540554e-02 2.70270277e-02</_>
    <_>
      4.47761193e-02 1.19402982e-01 8.95522386e-02 1.64179102e-01
      7.46268630e-02 1.49253728e-02 2.98507456e-02 1.19402982e-01
      2.23880589e-01 1.49253728e-02 8.95522386e-02 1.49253728e-02</_>
    <_>
      1.05263159e-01 7.01754391e-02 1.57894731e-01 1.05263159e-01
      3.50877196e-02 8.77192989e-02 1.40350878e-01 1.75438598e-02
      8.77192989e-02 8.77192989e-02 1.75438598e-02 8.77192989e-02</_>
    <_>
      1.40000001e-01 1.19999997e-01 1.40000001e-01 5.99999987e-02
      9.99999940e-02 3.99999991e-02 1.99999988e-01 5.99999987e-02 0.
      7.99999982e-02 0. 5.99999987e-02</_>
    <_>
      5.99999987e-02 9.99999940e-02 5.99999987e-02 7.99999982e-02
      9.99999940e-02 3.99999991e-02 7.99999982e-02 1.19999997e-01
      2.19999999e-01 7.99999982e-02 3.99999991e-02 1.99999996e-02</_>
    <_>
      4.34782617e-02 5.79710156e-02 8.69565234e-02 2.02898562e-01
      1.01449281e-01 1.44927539e-02 1.44927539e-02 1.01449281e-01
      2.17391312e-01 2.89855078e-02 5.79710156e-02 7.24637657e-02</_>
    <_>
      8.47457647e-02 1.01694912e-01 1.01694912e-01 1.69491526e-02
      1.69491526e-02 3.38983051e-02 8.47457647e-02 1.86440676e-01
      1.52542368e-01 5.08474559e-02 8.47457647e-02 8.47457647e-02</_>
    <_>
      6.32911399e-02 1.39240503e-01 1.26582280e-01 7.59493709e-02
      7.59493709e-02 5.06329127e-02 1.13924056e-01 0. 5.06329127e-02
      8.86075944e-02 1.26582280e-01 8.86075944e-02</_>
    <_>
      6.36363626e-02 9.99999940e-02 9.99999940e-02 1.18181817e-01
      9.99999940e-02 1.81818176e-02 0. 1.09090909e-01 2.09090903e-01
      3.63636352e-02 9.99999940e-02 4.54545431e-02</_>
    <_>
      6.06060624e-02 3.03030312e-02 9.09090936e-02 1.51515156e-01
      1.36363640e-01 4.54545468e-02 0. 9.09090936e-02 1.36363640e-01
      1.36363640e-01 7.57575780e-02 4.54545468e-02</_>
    <_>
      1.04166672e-01 8.33333358e-02 8.33333358e-02 2.29166672e-01
      4.16666679e-02 8.33333358e-02 1.04166672e-01 2.08333340e-02
      1.25000000e-01 8.33333358e-02 4.16666679e-02 0.</_>
    <_>
      6.97674453e-02 4.65116277e-02 0. 1.16279066e-01 0. 4.65116277e-02
      1.62790701e-01 1.62790701e-01 1.86046511e-01 1.86046511e-01 0.
      2.32558139e-02</_>
    <_>
      1.57894731e-01 1.57894731e-01 5.26315793e-02 5.26315793e-02
      7.89473653e-02 2.63157897e-02 7.89473653e-02 7.89473653e-02
      1.05263159e-01 1.31578952e-01 7.89473653e-02 0.</_>
    <_>
      5.88235334e-02 5.88235334e-02 1.17647067e-01 3.92156877e-02
      9.80392173e-02 5.88235334e-02 1.56862751e-01 7.84313753e-02
      1.76470593e-01 1.96078438e-02 7.84313753e-02 5.88235334e-02</_>
    <_>
      6.97674453e-02 6.97674453e-02 1.16279066e-01 4.65116277e-02
      1.16279066e-01 1.86046511e-01 9.30232555e-02 2.32558139e-02
      1.16279066e-01 1.16279066e-01 2.32558139e-02 2.32558139e-02</_>
    <_>
      9.30232555e-02 9.30232555e-02 1.39534891e-01 6.97674453e-02
      6.97674453e-02 9.30232555e-02 2.79069781e-01 0. 6.97674453e-02
      2.32558139e-02 2.32558139e-02 4.65116277e-02</_>
    <_>
      4.16666679e-02 8.33333358e-02 8.33333358e-02 6.25000000e-02
      1.04166672e-01 6.25000000e-02 8.33333358e-02 6.25000000e-02
      1.45833343e-01 4.16666679e-02 1.25000000e-01 1.04166672e-01</_>
    <_>
      2.08333340e-02 1.04166672e-01 4.16666679e-02 8.33333358e-02
      8.33333358e-02 8.33333358e-02 4.16666679e-02 1.45833343e-01
      1.25000000e-01 1.66666672e-01 6.25000000e-02 4.16666679e-02</_>
    <_>
      7.01754391e-02 8.77192989e-02 1.05263159e-01 1.57894731e-01
      1.22807018e-01 8.77192989e-02 8.77192989e-02 5.26315793e-02
      1.75438598e-02 7.01754391e-02 8.77192989e-02 5.26315793e-02</_>
    <_>
      9.72222239e-02 0. 8.33333358e-02 1.11111112e-01 8.33333358e-02
      1.25000000e-01 1.38888890e-02 1.11111112e-01 1.80555552e-01
      6.94444478e-02 9.72222239e-02 2.77777780e-02</_>
    <_>
      1.42857144e-02 5.71428575e-02 7.14285746e-02 1.14285715e-01
      1.14285715e-01 5.71428575e-02 5.71428575e-02 8.57142881e-02
      1.42857149e-01 1.00000001e-01 1.14285715e-01 7.14285746e-02</_>
    <_>
      8.47457647e-02 1.18644066e-01 1.01694912e-01 1.52542368e-01
      1.18644066e-01 1.69491526e-02 0. 6.77966103e-02 1.35593221e-01
      8.47457647e-02 5.08474559e-02 6.77966103e-02</_>
    <_>
      1.03448272e-01 5.17241359e-02 8.62068981e-02 1.37931034e-01
      5.17241359e-02 1.03448272e-01 1.72413796e-01 1.72413792e-02
      1.20689653e-01 8.62068981e-02 0. 6.89655170e-02</_>
    <_>
      9.09090862e-02 3.63636352e-02 9.09090862e-02 1.81818176e-02
      1.09090909e-01 3.63636352e-02 5.45454547e-02 1.27272725e-01
      3.09090912e-01 0. 5.45454547e-02 7.27272704e-02</_>
    <_>
      6.89655170e-02 1.03448272e-01 6.89655170e-02 0. 1.03448272e-01
      6.89655170e-02 6.89655170e-02 6.89655170e-02 2.41379306e-01
      8.62068981e-02 1.03448272e-01 1.72413792e-02</_>
    <_>
      2.94117648e-02 1.32352948e-01 7.35294148e-02 1.32352948e-01
      2.94117648e-02 1.61764711e-01 5.88235296e-02 5.88235296e-02
      1.61764711e-01 5.88235296e-02 8.82352963e-02 1.47058824e-02</_>
    <_>
      8.51063803e-02 2.12765951e-02 8.51063803e-02 1.06382973e-01
      6.38297871e-02 0. 6.38297871e-02 1.48936167e-01 1.70212761e-01
      4.25531901e-02 1.06382973e-01 1.06382973e-01</_>
    <_>
      9.75609720e-02 9.75609720e-02 1.21951215e-01 4.87804860e-02
      9.75609720e-02 9.75609720e-02 1.46341458e-01 2.43902430e-02 0.
      9.75609720e-02 9.75609720e-02 7.31707290e-02</_>
    <_>
      4.16666679e-02 8.33333358e-02 1.04166672e-01 6.25000000e-02
      6.25000000e-02 6.25000000e-02 6.25000000e-02 8.33333358e-02
      1.66666672e-01 1.04166672e-01 8.33333358e-02 8.33333358e-02</_>
    <_>
      1.00000009e-01 1.16666675e-01 5.00000045e-02 1.16666675e-01
      3.33333351e-02 1.16666675e-01 1.00000009e-01 3.33333351e-02
      1.00000009e-01 8.33333358e-02 6.66666701e-02 8.33333358e-02</_>
    <_>
      5.66037744e-02 1.13207549e-01 7.54716992e-02 9.43396240e-02
      3.77358496e-02 5.66037744e-02 1.50943398e-01 1.88679248e-02
      9.43396240e-02 1.69811323e-01 9.43396240e-02 3.77358496e-02</_>
    <_>
      4.08163257e-02 8.16326514e-02 2.04081628e-02 2.44897962e-01
      4.08163257e-02 1.63265303e-01 1.22448981e-01 8.16326514e-02
      4.08163257e-02 1.02040812e-01 4.08163257e-02 2.04081628e-02</_>
    <_>
      1.72413792e-02 3.44827585e-02 6.89655170e-02 3.10344815e-01
      6.89655170e-02 5.17241359e-02 8.62068981e-02 6.89655170e-02
      1.20689653e-01 1.37931034e-01 3.44827585e-02 0.</_>
    <_>
      8.16326514e-02 4.08163257e-02 4.08163257e-02 2.04081628e-02
      8.16326514e-02 1.22448981e-01 1.42857134e-01 1.22448981e-01
      1.42857134e-01 2.04081628e-02 1.02040812e-01 8.16326514e-02</_>
    <_>
      6.97674453e-02 4.65116277e-02 2.32558139e-02 1.16279066e-01
      2.32558139e-02 6.97674453e-02 2.32558131e-01 6.97674453e-02
      4.65116277e-02 1.86046511e-01 6.97674453e-02 4.65116277e-02</_>
    <_>
      1.42857149e-01 1.14285715e-01 2.85714287e-02 2.85714287e-02
      2.85714287e-02 8.57142881e-02 5.71428575e-02 1.14285715e-01
      1.14285715e-01 8.57142881e-02 8.57142881e-02 1.14285715e-01</_>
    <_>
      2.56410260e-02 7.69230798e-02 2.56410260e-02 2.05128208e-01
      7.69230798e-02 7.69230798e-02 7.69230798e-02 7.69230798e-02
      7.69230798e-02 2.30769232e-01 2.56410260e-02 2.56410260e-02</_>
    <_>
      0. 1.06382973e-01 4.25531901e-02 1.06382973e-01 4.25531901e-02
      2.12765947e-01 1.70212761e-01 2.12765951e-02 0. 1.27659574e-01
      8.51063803e-02 8.51063803e-02</_>
    <_>
      4.16666679e-02 2.77777780e-02 2.77777780e-02 1.38888896e-01
      2.77777780e-02 9.72222239e-02 1.11111112e-01 1.52777776e-01
      8.33333358e-02 1.94444448e-01 4.16666679e-02 5.55555560e-02</_>
    <_>
      2.08333340e-02 8.33333358e-02 1.04166672e-01 8.33333358e-02
      2.08333340e-02 1.04166672e-01 1.25000000e-01 6.25000000e-02
      6.25000000e-02 1.87500000e-01 8.33333358e-02 6.25000000e-02</_>
    <_>
      1.08108111e-01 8.10810849e-02 5.40540554e-02 1.35135144e-01
      8.10810849e-02 8.10810849e-02 8.10810849e-02 0. 1.35135144e-01
      1.62162170e-01 5.40540554e-02 2.70270277e-02</_>
    <_>
      3.03030312e-02 9.09090936e-02 1.51515156e-02 1.51515156e-01
      7.57575780e-02 6.06060624e-02 6.06060624e-02 9.09090936e-02
      1.36363640e-01 1.21212125e-01 1.51515156e-01 1.51515156e-02</_>
    <_>
      5.88235334e-02 1.17647067e-01 3.92156877e-02 7.84313753e-02
      7.84313753e-02 1.37254909e-01 1.56862751e-01 5.88235334e-02
      3.92156877e-02 1.37254909e-01 7.84313753e-02 1.96078438e-02</_>
    <_>
      2.27272734e-02 4.54545468e-02 4.54545468e-02 2.27272734e-02
      6.81818202e-02 0. 1.81818187e-01 2.27272734e-01 2.50000000e-01
      9.09090936e-02 0. 4.54545468e-02</_>
    <_>
      1.28205135e-01 1.53846160e-01 1.28205135e-01 0. 5.12820520e-02 0.
      1.28205135e-01 1.28205135e-01 1.28205135e-01 5.12820520e-02
      5.12820520e-02 5.12820520e-02</_>
    <_>
      8.62068981e-02 5.17241359e-02 1.20689653e-01 1.03448272e-01
      3.44827585e-02 5.17241359e-02 0. 8.62068981e-02 2.06896544e-01
      6.89655170e-02 1.03448272e-01 8.62068981e-02</_>
    <_>
      7.93650821e-02 6.34920672e-02 1.58730164e-01 1.42857149e-01
      3.17460336e-02 1.58730168e-02 3.17460336e-02 6.34920672e-02
      1.74603179e-01 9.52381045e-02 1.11111119e-01 3.17460336e-02</_>
    <_>
      1.27659574e-01 6.38297871e-02 1.70212761e-01 1.06382973e-01
      2.12765951e-02 1.27659574e-01 1.48936167e-01 6.38297871e-02
      8.51063803e-02 4.25531901e-02 0. 4.25531901e-02</_>
    <_>
      1.49253726e-01 1.64179102e-01 1.19402982e-01 8.95522386e-02
      4.47761193e-02 2.98507456e-02 2.98507456e-02 1.49253728e-02
      4.47761193e-02 1.19402982e-01 7.46268630e-02 1.19402982e-01</_>
    <_>
      4.41176482e-02 4.41176482e-02 2.94117648e-02 2.64705896e-01
      7.35294148e-02 7.35294148e-02 1.47058824e-02 1.47058824e-02
      1.17647059e-01 1.61764711e-01 1.32352948e-01 2.94117648e-02</_>
    <_>
      5.35714328e-02 1.07142866e-01 8.92857164e-02 1.07142866e-01
      8.92857164e-02 1.07142866e-01 5.35714328e-02 3.57142873e-02
      8.92857164e-02 1.78571433e-01 5.35714328e-02 3.57142873e-02</_>
    <_>
      1.11111112e-01 2.77777780e-02 1.38888896e-01 2.22222224e-01
      2.77777780e-02 2.77777780e-02 0. 2.50000000e-01 8.33333358e-02
      8.33333358e-02 2.77777780e-02 0.</_>
    <_>
      5.71428575e-02 8.57142881e-02 7.14285746e-02 5.71428575e-02
      5.71428575e-02 5.71428575e-02 5.71428575e-02 8.57142881e-02
      2.14285716e-01 1.14285715e-01 1.00000001e-01 4.28571440e-02</_>
    <_>
      1.16666675e-01 8.33333358e-02 1.16666675e-01 1.33333340e-01
      1.66666675e-02 5.00000045e-02 1.66666672e-01 1.16666675e-01
      1.00000009e-01 3.33333351e-02 5.00000045e-02 1.66666675e-02</_>
    <_>
      8.16326514e-02 2.04081628e-02 1.63265303e-01 1.63265303e-01
      2.04081628e-02 1.22448981e-01 8.16326514e-02 0. 2.04081628e-02
      2.04081625e-01 6.12244904e-02 6.12244904e-02</_>
    <_>
      1.90476194e-01 0. 1.42857149e-01 9.52380970e-02 4.76190485e-02
      9.52380970e-02 9.52380970e-02 9.52380970e-02 1.42857149e-01 0.
      9.52380970e-02 0.</_>
    <_>
      3.38983051e-02 5.08474559e-02 8.47457647e-02 5.08474559e-02
      1.69491526e-02 3.38983051e-02 6.77966103e-02 1.69491529e-01
      1.69491529e-01 1.86440676e-01 1.01694912e-01 3.38983051e-02</_>
    <_>
      5.35714328e-02 7.14285746e-02 1.07142866e-01 5.35714328e-02
      1.42857149e-01 3.57142873e-02 0. 7.14285746e-02 1.96428582e-01
      1.25000000e-01 1.07142866e-01 3.57142873e-02</_>
    <_>
      1.29032254e-01 8.06451589e-02 1.12903222e-01 1.61290318e-01
      1.12903222e-01 1.61290318e-02 4.83870953e-02 8.06451589e-02
      1.12903222e-01 4.83870953e-02 8.06451589e-02 1.61290318e-02</_>
    <_>
      4.61538471e-02 6.15384616e-02 1.07692309e-01 1.38461545e-01
      4.61538471e-02 6.15384616e-02 6.15384616e-02 1.07692309e-01
      1.23076923e-01 9.23076943e-02 1.07692309e-01 4.61538471e-02</_>
    <_>
      4.93827164e-02 1.72839507e-01 8.64197537e-02 2.09876537e-01
      7.40740746e-02 2.46913582e-02 1.11111112e-01 3.70370373e-02
      8.64197537e-02 3.70370373e-02 8.64197537e-02 2.46913582e-02</_>
    <_>
      5.35714328e-02 0. 5.35714328e-02 1.60714298e-01 3.57142873e-02
      1.60714298e-01 3.57142873e-02 1.25000000e-01 7.14285746e-02
      1.60714298e-01 5.35714328e-02 8.92857164e-02</_>
    <_>
      4.44444455e-02 6.66666701e-02 8.88888910e-02 2.22222228e-02
      6.66666701e-02 2.22222228e-02 1.11111112e-01 1.11111112e-01
      2.00000003e-01 2.22222224e-01 2.22222228e-02 2.22222228e-02</_>
    <_>
      1.83333337e-01 3.33333351e-02 1.50000006e-01 1.33333340e-01
      6.66666701e-02 3.33333351e-02 5.00000045e-02 3.33333351e-02
      1.83333337e-01 3.33333351e-02 5.00000045e-02 5.00000045e-02</_>
    <_>
      6.41025677e-02 8.97435918e-02 8.97435918e-02 1.28205135e-01
      3.84615399e-02 2.56410260e-02 2.56410260e-02 2.56410260e-02
      1.28205135e-01 1.92307696e-01 1.66666672e-01 2.56410260e-02</_>
    <_>
      4.61538471e-02 1.07692309e-01 1.53846154e-02 1.69230774e-01
      1.23076923e-01 6.15384616e-02 3.07692308e-02 1.23076923e-01
      1.07692309e-01 1.07692309e-01 9.23076943e-02 1.53846154e-02</_>
    <_>
      9.30232555e-02 9.30232555e-02 9.30232555e-02 6.97674453e-02 0.
      1.16279066e-01 1.16279066e-01 1.86046511e-01 2.32558139e-02
      1.16279066e-01 2.32558139e-02 6.97674453e-02</_>
    <_>
      6.66666701e-02 6.66666701e-02 1.66666675e-02 8.33333358e-02
      6.66666701e-02 1.00000009e-01 6.66666701e-02 6.66666701e-02
      1.83333337e-01 1.00000009e-01 1.33333340e-01 5.00000045e-02</_>
    <_>
      9.30232555e-02 1.39534891e-01 6.97674453e-02 6.97674453e-02
      2.32558139e-02 4.65116277e-02 2.09302321e-01 9.30232555e-02
      6.97674453e-02 4.65116277e-02 9.30232555e-02 4.65116277e-02</_>
    <_>
      7.54716992e-02 3.77358496e-02 1.13207549e-01 9.43396240e-02
      1.13207549e-01 1.88679248e-02 0. 5.66037744e-02 1.69811323e-01
      1.50943398e-01 1.13207549e-01 5.66037744e-02</_>
    <_>
      3.33333351e-02 1.00000009e-01 3.33333351e-02 1.16666675e-01
      1.50000006e-01 5.00000045e-02 5.00000045e-02 1.00000009e-01
      1.00000009e-01 1.50000006e-01 1.00000009e-01 1.66666675e-02</_>
    <_>
      1.61290318e-01 0. 9.67741907e-02 3.22580636e-02 6.45161271e-02
      9.67741907e-02 2.25806445e-01 9.67741907e-02 1.61290318e-01
      6.45161271e-02 0. 0.</_>
    <_>
      8.16326514e-02 1.22448981e-01 6.12244904e-02 8.16326514e-02
      1.02040812e-01 2.04081628e-02 1.63265303e-01 1.02040812e-01
      1.22448981e-01 1.22448981e-01 0. 2.04081628e-02</_>
    <_>
      8.57142881e-02 7.14285746e-02 5.71428575e-02 2.42857143e-01
      2.85714287e-02 4.28571440e-02 0. 1.42857149e-01 2.28571430e-01
      7.14285746e-02 1.42857144e-02 1.42857144e-02</_>
    <_>
      1.02564104e-01 2.56410260e-02 5.12820520e-02 7.69230798e-02 0.
      5.12820520e-02 1.28205135e-01 1.53846160e-01 3.33333343e-01
      7.69230798e-02 0. 0.</_>
    <_>
      5.76923117e-02 7.69230798e-02 7.69230798e-02 1.15384623e-01
      7.69230798e-02 9.61538479e-02 1.15384623e-01 9.61538479e-02
      9.61538479e-02 5.76923117e-02 1.34615391e-01 0.</_>
    <_>
      1.16666675e-01 8.33333358e-02 1.33333340e-01 1.16666675e-01
      8.33333358e-02 1.66666675e-02 1.66666675e-02 1.66666672e-01
      1.00000009e-01 3.33333351e-02 1.16666675e-01 1.66666675e-02</_>
    <_>
      2.63157897e-02 1.05263159e-01 2.63157897e-02 2.10526317e-01 0.
      1.31578952e-01 2.63157897e-02 2.63157897e-02 1.31578952e-01
      2.63157904e-01 2.63157897e-02 2.63157897e-02</_>
    <_>
      1.36363640e-01 1.36363640e-01 4.54545468e-02 4.54545468e-02
      1.13636367e-01 1.36363640e-01 1.13636367e-01 4.54545468e-02
      6.81818202e-02 1.13636367e-01 2.27272734e-02 2.27272734e-02</_>
    <_>
      2.77777780e-02 5.55555560e-02 5.55555560e-02 1.38888896e-01
      5.55555560e-02 1.11111112e-01 1.11111112e-01 1.11111112e-01
      1.11111112e-01 1.11111112e-01 1.11111112e-01 0.</_>
    <_>
      1.06060609e-01 1.51515156e-01 9.09090936e-02 6.06060624e-02
      9.09090936e-02 7.57575780e-02 9.09090936e-02 4.54545468e-02
      1.51515156e-01 3.03030312e-02 6.06060624e-02 4.54545468e-02</_>
    <_>
      6.97674453e-02 9.30232555e-02 1.39534891e-01 4.65116277e-02 0.
      6.97674453e-02 4.65116277e-02 9.30232555e-02 1.39534891e-01
      4.65116277e-02 1.16279066e-01 1.39534891e-01</_>
    <_>
      2.17391308e-02 8.69565234e-02 2.17391308e-02 1.52173921e-01
      8.69565234e-02 4.34782617e-02 2.17391308e-02 2.39130437e-01
      8.69565234e-02 1.52173921e-01 8.69565234e-02 0.</_>
    <_>
      5.71428575e-02 8.57142881e-02 1.14285715e-01 2.85714287e-02
      2.85714287e-02 5.71428575e-02 5.71428575e-02 5.71428575e-02
      2.85714298e-01 2.85714287e-02 8.57142881e-02 1.14285715e-01</_>
    <_>
      1.31578952e-01 7.89473653e-02 7.89473653e-02 0. 7.89473653e-02
      1.05263159e-01 1.57894731e-01 5.26315793e-02 1.57894731e-01
      1.31578952e-01 2.63157897e-02 0.</_>
    <_>
      2.38095243e-02 7.14285746e-02 7.14285746e-02 2.14285716e-01
      9.52380970e-02 2.38095243e-02 7.14285746e-02 4.76190485e-02
      1.42857149e-01 1.19047619e-01 4.76190485e-02 7.14285746e-02</_>
    <_>
      2.85714287e-02 2.85714287e-02 0. 8.57142881e-02 8.57142881e-02
      1.42857149e-01 1.42857149e-01 1.14285715e-01 2.28571430e-01
      1.42857149e-01 0. 0.</_>
    <_>
      1.40845068e-02 1.69014081e-01 1.40845068e-02 1.40845060e-01
      8.45070407e-02 1.40845068e-02 4.22535203e-02 8.45070407e-02
      1.26760557e-01 1.54929578e-01 1.40845060e-01 1.40845068e-02</_>
    <_>
      7.27272704e-02 1.09090909e-01 1.09090909e-01 5.45454547e-02
      1.09090909e-01 0. 0. 9.09090862e-02 1.81818172e-01 9.09090862e-02
      1.45454541e-01 3.63636352e-02</_>
    <_>
      1.47058830e-01 8.82352963e-02 1.17647059e-01 5.88235296e-02 0.
      5.88235296e-02 1.17647059e-01 5.88235296e-02 1.76470593e-01
      2.94117648e-02 1.17647059e-01 2.94117648e-02</_>
    <_>
      2.63157897e-02 7.89473653e-02 0. 5.26315793e-02 5.26315793e-02
      1.05263159e-01 5.26315793e-02 1.57894731e-01 2.10526317e-01
      1.84210524e-01 2.63157897e-02 5.26315793e-02</_>
    <_>
      0. 1.22807018e-01 3.50877196e-02 1.05263159e-01 3.50877196e-02
      1.40350878e-01 5.26315793e-02 8.77192989e-02 3.50877196e-02
      1.92982465e-01 1.57894731e-01 3.50877196e-02</_>
    <_>
      4.16666679e-02 4.16666679e-02 0. 1.04166672e-01 0. 1.25000000e-01
      4.16666679e-02 2.08333343e-01 3.12500000e-01 8.33333358e-02
      4.16666679e-02 0.</_>
    <_>
      3.84615399e-02 5.76923117e-02 3.84615399e-02 7.69230798e-02
      5.76923117e-02 7.69230798e-02 3.84615399e-02 2.88461536e-01
      1.34615391e-01 5.76923117e-02 1.15384623e-01 1.92307699e-02</_>
    <_>
      1.12903222e-01 9.67741907e-02 6.45161271e-02 4.83870953e-02
      8.06451589e-02 3.22580636e-02 3.22580636e-02 1.29032254e-01
      1.77419350e-01 6.45161271e-02 4.83870953e-02 1.12903222e-01</_>
    <_>
      5.55555560e-02 1.11111112e-01 1.29629627e-01 7.40740746e-02
      5.55555560e-02 3.70370373e-02 9.25925970e-02 7.40740746e-02
      7.40740746e-02 7.40740746e-02 9.25925970e-02 1.29629627e-01</_>
    <_>
      7.40740746e-02 1.66666672e-01 1.85185187e-02 3.70370373e-02
      1.48148149e-01 5.55555560e-02 3.70370373e-02 1.85185194e-01
      1.11111112e-01 5.55555560e-02 7.40740746e-02 3.70370373e-02</_>
    <_>
      6.12244904e-02 4.08163257e-02 1.22448981e-01 1.42857134e-01
      2.04081628e-02 2.04081628e-02 6.12244904e-02 1.02040812e-01
      2.44897962e-01 8.16326514e-02 6.12244904e-02 4.08163257e-02</_>
    <_>
      1.91489354e-01 4.25531901e-02 6.38297871e-02 6.38297871e-02
      2.12765951e-02 1.27659574e-01 1.06382973e-01 4.25531901e-02
      8.51063803e-02 6.38297871e-02 1.27659574e-01 6.38297871e-02</_>
    <_>
      8.33333358e-02 2.08333340e-02 6.25000000e-02 8.33333358e-02
      6.25000000e-02 2.08333343e-01 8.33333358e-02 8.33333358e-02
      2.50000000e-01 4.16666679e-02 2.08333340e-02 0.</_>
    <_>
      3.03030312e-02 9.09090936e-02 1.06060609e-01 9.09090936e-02
      6.06060624e-02 7.57575780e-02 4.54545468e-02 9.09090936e-02
      1.51515156e-01 7.57575780e-02 1.06060609e-01 7.57575780e-02</_>
    <_>
      0. 0. 0. 6.66666701e-02 6.66666701e-02 2.00000018e-01
      2.66666681e-01 6.66666701e-02 2.66666681e-01 6.66666701e-02 0. 0.</_>
    <_>
      2.08333340e-02 1.04166672e-01 6.25000000e-02 1.04166672e-01
      2.08333340e-02 0. 6.25000000e-02 8.33333358e-02 2.70833343e-01
      4.16666679e-02 1.25000000e-01 1.04166672e-01</_>
    <_>
      7.81250000e-02 3.12500000e-02 6.25000000e-02 9.37500000e-02
      7.81250000e-02 6.25000000e-02 9.37500000e-02 1.56250000e-01
      9.37500000e-02 6.25000000e-02 7.81250000e-02 1.09375000e-01</_>
    <_>
      8.62068981e-02 5.17241359e-02 1.89655170e-01 1.72413796e-01
      5.17241359e-02 5.17241359e-02 1.20689653e-01 8.62068981e-02
      8.62068981e-02 5.17241359e-02 5.17241359e-02 0.</_>
    <_>
      9.09090936e-02 6.81818202e-02 2.27272734e-02 1.13636367e-01
      2.27272734e-02 4.54545468e-02 1.59090906e-01 1.36363640e-01
      9.09090936e-02 6.81818202e-02 2.27272734e-02 1.59090906e-01</_>
    <_>
      9.09090936e-02 4.54545468e-02 2.04545468e-01 4.54545468e-02
      2.27272734e-02 4.54545468e-02 1.13636367e-01 1.13636367e-01 0.
      1.36363640e-01 9.09090936e-02 9.09090936e-02</_>
    <_>
      5.00000045e-02 6.66666701e-02 1.50000006e-01 8.33333358e-02
      3.33333351e-02 3.33333351e-02 8.33333358e-02 2.00000018e-01
      1.33333340e-01 6.66666701e-02 1.66666675e-02 8.33333358e-02</_>
    <_>
      2.08333340e-02 2.08333340e-02 4.16666679e-02 2.50000000e-01
      4.16666679e-02 6.25000000e-02 8.33333358e-02 8.33333358e-02
      4.16666679e-02 2.29166672e-01 8.33333358e-02 4.16666679e-02</_>
    <_>
      5.71428575e-02 5.71428575e-02 5.71428575e-02 5.71428575e-02
      5.71428575e-02 8.57142881e-02 2.00000003e-01 1.14285715e-01
      1.42857149e-01 2.85714287e-02 1.14285715e-01 2.85714287e-02</_>
    <_>
      7.99999982e-02 9.99999940e-02 7.99999982e-02 3.99999991e-02
      1.19999997e-01 7.99999982e-02 1.19999997e-01 7.99999982e-02
      7.99999982e-02 3.99999991e-02 7.99999982e-02 9.99999940e-02</_>
    <_>
      4.87804860e-02 7.31707290e-02 1.46341458e-01 1.95121944e-01 0.
      7.31707290e-02 4.87804860e-02 9.75609720e-02 1.70731694e-01
      1.21951215e-01 0. 2.43902430e-02</_>
    <_>
      0. 0. 0. 6.89655170e-02 3.44827585e-02 1.03448272e-01
      2.06896544e-01 2.06896544e-01 1.72413796e-01 1.37931034e-01
      6.89655170e-02 0.</_>
    <_>
      1.28205135e-01 2.56410260e-02 5.12820520e-02 1.28205135e-01
      5.12820520e-02 1.28205135e-01 1.79487184e-01 5.12820520e-02
      2.56410260e-02 7.69230798e-02 1.02564104e-01 5.12820520e-02</_>
    <_>
      6.75675720e-02 8.10810849e-02 1.21621624e-01 5.40540554e-02
      1.08108111e-01 4.05405425e-02 5.40540554e-02 8.10810849e-02
      1.08108111e-01 8.10810849e-02 9.45945978e-02 1.08108111e-01</_>
    <_>
      1.30434781e-01 2.17391308e-02 1.30434781e-01 2.17391308e-02
      8.69565234e-02 6.52173907e-02 1.52173921e-01 4.34782617e-02
      2.17391308e-02 8.69565234e-02 1.08695656e-01 1.30434781e-01</_>
    <_>
      5.00000007e-02 5.00000007e-02 1.25000000e-01 7.50000030e-02
      5.00000007e-02 1.00000001e-01 2.25000009e-01 2.50000004e-02
      2.50000004e-02 7.50000030e-02 1.50000006e-01 5.00000007e-02</_>
    <_>
      8.69565234e-02 6.52173907e-02 1.08695656e-01 4.34782617e-02
      4.34782617e-02 1.08695656e-01 8.69565234e-02 2.17391312e-01
      1.08695656e-01 1.08695656e-01 2.17391308e-02 0.</_>
    <_>
      4.87804860e-02 2.43902430e-02 0. 4.87804860e-02 0. 9.75609720e-02
      0. 1.46341458e-01 3.41463387e-01 2.19512194e-01 7.31707290e-02 0.</_>
    <_>
      1.40000001e-01 7.99999982e-02 1.79999992e-01 1.40000001e-01
      5.99999987e-02 9.99999940e-02 5.99999987e-02 1.99999996e-02
      1.40000001e-01 3.99999991e-02 1.99999996e-02 1.99999996e-02</_>
    <_>
      0. 1.11111119e-01 4.76190522e-02 9.52381045e-02 7.93650821e-02
      1.58730168e-02 4.76190522e-02 1.74603179e-01 1.90476209e-01
      9.52381045e-02 1.42857149e-01 0.</_>
    <_>
      3.22580636e-02 3.22580636e-02 1.61290318e-01 6.45161271e-02
      3.22580636e-02 1.61290318e-01 6.45161271e-02 1.61290318e-01
      6.45161271e-02 1.61290318e-01 3.22580636e-02 3.22580636e-02</_>
    <_>
      6.77966103e-02 6.77966103e-02 8.47457647e-02 6.77966103e-02
      1.69491526e-02 6.77966103e-02 2.20338985e-01 8.47457647e-02
      1.18644066e-01 8.47457647e-02 6.77966103e-02 5.08474559e-02</_>
    <_>
      7.89473653e-02 1.57894731e-01 5.26315793e-02 1.84210524e-01
      7.89473653e-02 5.26315793e-02 1.84210524e-01 2.63157897e-02
      1.05263159e-01 2.63157897e-02 5.26315793e-02 0.</_>
    <_>
      0. 3.99999991e-02 7.99999982e-02 1.19999997e-01 3.99999991e-02
      7.99999982e-02 1.19999997e-01 2.39999995e-01 1.59999996e-01
      1.19999997e-01 0. 0.</_>
    <_>
      6.25000000e-02 8.33333358e-02 1.04166672e-01 1.25000000e-01
      1.87500000e-01 2.08333340e-02 1.25000000e-01 8.33333358e-02
      1.45833343e-01 2.08333340e-02 4.16666679e-02 0.</_>
    <_>
      0. 0. 0. 1.37931034e-01 0. 1.37931034e-01 1.72413796e-01
      2.75862068e-01 1.03448272e-01 1.72413796e-01 0. 0.</_>
    <_>
      3.38983051e-02 1.18644066e-01 1.35593221e-01 3.38983051e-02
      1.52542368e-01 8.47457647e-02 1.18644066e-01 1.52542368e-01
      3.38983051e-02 5.08474559e-02 3.38983051e-02 5.08474559e-02</_>
    <_>
      9.52381045e-02 7.93650821e-02 1.11111119e-01 1.42857149e-01
      1.58730168e-02 3.17460336e-02 9.52381045e-02 1.26984134e-01
      1.42857149e-01 3.17460336e-02 9.52381045e-02 3.17460336e-02</_>
    <_>
      3.44827585e-02 0. 1.03448272e-01 1.37931034e-01 1.03448272e-01
      1.72413796e-01 1.37931034e-01 6.89655170e-02 2.06896544e-01
      3.44827585e-02 0. 0.</_>
    <_>
      1.25000000e-01 2.50000004e-02 7.50000030e-02 7.50000030e-02
      2.50000004e-02 2.00000003e-01 2.00000003e-01 1.00000001e-01
      1.25000000e-01 0. 0. 5.00000007e-02</_>
    <_>
      2.94117648e-02 4.41176482e-02 7.35294148e-02 1.17647059e-01
      2.94117648e-02 1.17647059e-01 5.88235296e-02 1.02941178e-01
      1.76470593e-01 8.82352963e-02 1.17647059e-01 4.41176482e-02</_>
    <_>
      6.38297871e-02 1.27659574e-01 1.27659574e-01 1.06382973e-01
      9.57446769e-02 2.12765951e-02 0. 1.06382973e-01 1.38297871e-01
      8.51063803e-02 1.17021270e-01 1.06382975e-02</_>
    <_>
      7.01754391e-02 5.26315793e-02 3.50877196e-02 1.92982465e-01
      7.01754391e-02 7.01754391e-02 0. 7.01754391e-02 1.22807018e-01
      2.28070170e-01 3.50877196e-02 5.26315793e-02</_>
    <_>
      1.48936167e-01 6.38297871e-02 1.06382973e-01 8.51063803e-02
      6.38297871e-02 1.48936167e-01 4.25531901e-02 2.12765951e-02
      6.38297871e-02 6.38297871e-02 6.38297871e-02 1.27659574e-01</_>
    <_>
      5.35714328e-02 1.60714298e-01 3.57142873e-02 1.25000000e-01
      3.57142873e-02 5.35714328e-02 7.14285746e-02 1.25000000e-01
      8.92857164e-02 8.92857164e-02 1.07142866e-01 5.35714328e-02</_>
    <_>
      1.06382973e-01 4.25531901e-02 8.51063803e-02 8.51063803e-02
      6.38297871e-02 1.06382973e-01 8.51063803e-02 2.12765951e-02
      2.55319148e-01 0. 6.38297871e-02 8.51063803e-02</_>
    <_>
      1.01449281e-01 1.30434781e-01 1.01449281e-01 5.79710156e-02
      1.01449281e-01 4.34782617e-02 4.34782617e-02 4.34782617e-02
      1.73913047e-01 7.24637657e-02 1.15942031e-01 1.44927539e-02</_>
    <_>
      3.84615399e-02 1.53846160e-01 5.76923117e-02 1.53846160e-01
      5.76923117e-02 1.92307699e-02 3.84615399e-02 1.53846160e-01
      1.15384623e-01 1.15384623e-01 5.76923117e-02 3.84615399e-02</_>
    <_>
      3.44827585e-02 1.89655170e-01 1.37931034e-01 1.20689653e-01
      6.89655170e-02 3.44827585e-02 3.44827585e-02 5.17241359e-02
      1.72413796e-01 6.89655170e-02 6.89655170e-02 1.72413792e-02</_>
    <_>
      0. 0. 2.38095243e-02 1.19047619e-01 9.52380970e-02 1.19047619e-01
      1.90476194e-01 1.42857149e-01 1.66666672e-01 1.19047619e-01 0.
      2.38095243e-02</_>
    <_>
      1.56250000e-02 6.25000000e-02 7.81250000e-02 1.71875000e-01
      7.81250000e-02 4.68750000e-02 9.37500000e-02 4.68750000e-02
      2.03125000e-01 1.09375000e-01 6.25000000e-02 3.12500000e-02</_>
    <_>
      5.26315793e-02 5.26315793e-02 2.63157897e-02 5.26315793e-02
      5.26315793e-02 2.63157897e-02 2.10526317e-01 1.84210524e-01
      1.05263159e-01 1.05263159e-01 1.31578952e-01 0.</_>
    <_>
      3.38983051e-02 1.01694912e-01 6.77966103e-02 1.86440676e-01
      1.01694912e-01 3.38983051e-02 6.77966103e-02 3.38983051e-02
      1.01694912e-01 8.47457647e-02 1.35593221e-01 5.08474559e-02</_>
    <_>
      9.30232555e-02 1.39534891e-01 1.39534891e-01 0. 4.65116277e-02
      9.30232555e-02 1.86046511e-01 6.97674453e-02 2.32558139e-02
      2.32558139e-02 9.30232555e-02 9.30232555e-02</_>
    <_>
      1.19999997e-01 1.19999997e-01 1.19999997e-01 5.99999987e-02
      9.99999940e-02 3.99999991e-02 0. 5.99999987e-02 7.99999982e-02
      1.19999997e-01 1.40000001e-01 3.99999991e-02</_>
    <_>
      5.35714328e-02 1.07142866e-01 8.92857164e-02 0. 1.42857149e-01
      1.07142866e-01 7.14285746e-02 8.92857164e-02 7.14285746e-02
      5.35714328e-02 7.14285746e-02 1.42857149e-01</_>
    <_>
      1.19047619e-01 4.76190485e-02 9.52380970e-02 9.52380970e-02
      2.38095243e-02 2.38095243e-02 7.14285746e-02 1.66666672e-01
      1.66666672e-01 4.76190485e-02 9.52380970e-02 4.76190485e-02</_>
    <_>
      3.84615399e-02 9.61538479e-02 5.76923117e-02 5.76923117e-02 0.
      9.61538479e-02 1.34615391e-01 1.73076928e-01 1.15384623e-01
      5.76923117e-02 5.76923117e-02 1.15384623e-01</_>
    <_>
      1.42857134e-01 6.12244904e-02 4.08163257e-02 1.02040812e-01
      4.08163257e-02 1.02040812e-01 1.22448981e-01 1.02040812e-01
      1.02040812e-01 1.22448981e-01 2.04081628e-02 4.08163257e-02</_>
    <_>
      1.99999996e-02 1.99999996e-02 3.99999991e-02 1.19999997e-01 0.
      1.19999997e-01 9.99999940e-02 1.59999996e-01 9.99999940e-02
      1.59999996e-01 3.99999991e-02 1.19999997e-01</_>
    <_>
      0. 2.77777780e-02 0. 1.94444448e-01 0. 1.11111112e-01
      1.94444448e-01 2.77777791e-01 5.55555560e-02 1.38888896e-01 0. 0.</_>
    <_>
      1.19999997e-01 1.19999997e-01 3.99999991e-02 7.99999982e-02
      3.99999991e-02 7.99999982e-02 7.99999982e-02 3.99999991e-02
      7.99999982e-02 2.39999995e-01 3.99999991e-02 3.99999991e-02</_>
    <_>
      6.81818202e-02 2.27272734e-02 6.81818202e-02 2.04545468e-01
      2.27272734e-02 9.09090936e-02 2.27272734e-01 1.13636367e-01
      1.36363640e-01 2.27272734e-02 2.27272734e-02 0.</_>
    <_>
      2.17391308e-02 8.69565234e-02 4.34782617e-02 1.08695656e-01 0.
      6.52173907e-02 8.69565234e-02 2.17391312e-01 1.95652172e-01
      2.17391308e-02 1.30434781e-01 2.17391308e-02</_>
    <_>
      1.04166672e-01 1.45833343e-01 4.16666679e-02 1.04166672e-01
      6.25000000e-02 4.16666679e-02 6.25000000e-02 1.25000000e-01
      1.25000000e-01 1.04166672e-01 8.33333358e-02 0.</_>
    <_>
      1.45454541e-01 5.45454547e-02 5.45454547e-02 5.45454547e-02
      1.09090909e-01 5.45454547e-02 9.09090862e-02 5.45454547e-02
      1.81818172e-01 1.81818176e-02 1.09090909e-01 7.27272704e-02</_>
    <_>
      8.33333358e-02 2.08333340e-02 6.25000000e-02 1.25000000e-01
      2.08333340e-02 4.16666679e-02 6.25000000e-02 3.95833343e-01
      8.33333358e-02 4.16666679e-02 6.25000000e-02 0.</_>
    <_>
      1.34615391e-01 9.61538479e-02 9.61538479e-02 9.61538479e-02
      5.76923117e-02 0. 9.61538479e-02 1.73076928e-01 1.73076928e-01 0.
      1.92307699e-02 5.76923117e-02</_>
    <_>
      1.00000009e-01 8.33333358e-02 1.00000009e-01 1.66666675e-02
      8.33333358e-02 5.00000045e-02 6.66666701e-02 1.00000009e-01
      2.16666684e-01 8.33333358e-02 6.66666701e-02 3.33333351e-02</_>
    <_>
      1.13636367e-01 1.13636367e-01 1.13636367e-01 1.13636367e-01
      4.54545468e-02 0. 6.81818202e-02 4.54545468e-02 1.13636367e-01
      9.09090936e-02 9.09090936e-02 9.09090936e-02</_>
    <_>
      1.07142866e-01 7.14285746e-02 1.60714298e-01 5.35714328e-02
      5.35714328e-02 1.25000000e-01 8.92857164e-02 8.92857164e-02
      7.14285746e-02 1.78571437e-02 5.35714328e-02 1.07142866e-01</_>
    <_>
      1.75438598e-02 7.01754391e-02 1.75438598e-02 2.28070170e-01
      1.75438598e-02 7.01754391e-02 7.01754391e-02 1.22807018e-01
      8.77192989e-02 1.75438598e-01 1.05263159e-01 1.75438598e-02</_>
    <_>
      4.08163257e-02 4.08163257e-02 4.08163257e-02 1.42857134e-01
      6.12244904e-02 4.08163257e-02 6.12244904e-02 6.12244904e-02
      1.42857134e-01 2.44897962e-01 4.08163257e-02 8.16326514e-02</_>
    <_>
      5.55555560e-02 1.38888896e-01 1.11111112e-01 1.25000000e-01
      4.16666679e-02 0. 0. 1.38888896e-01 9.72222239e-02 2.08333328e-01
      6.94444478e-02 1.38888890e-02</_>
    <_>
      1.08433731e-01 1.08433731e-01 7.22891539e-02 6.02409616e-02
      1.44578308e-01 0. 1.20481923e-02 8.43373463e-02 1.80722892e-01
      1.20481923e-01 6.02409616e-02 4.81927693e-02</_>
    <_>
      3.89610380e-02 1.81818187e-01 5.19480519e-02 1.81818187e-01
      3.89610380e-02 2.59740259e-02 3.89610380e-02 1.29870132e-01
      7.79220760e-02 9.09090936e-02 1.16883114e-01 2.59740259e-02</_>
    <_>
      2.04081628e-02 1.22448981e-01 8.16326514e-02 1.42857134e-01
      4.08163257e-02 6.12244904e-02 1.02040812e-01 1.02040812e-01
      1.42857134e-01 8.16326514e-02 4.08163257e-02 6.12244904e-02</_>
    <_>
      5.88235334e-02 5.88235334e-02 1.37254909e-01 3.92156877e-02
      1.17647067e-01 7.84313753e-02 1.76470593e-01 3.92156877e-02
      1.96078435e-01 3.92156877e-02 5.88235334e-02 0.</_>
    <_>
      2.70270277e-02 5.40540554e-02 2.70270277e-02 8.10810849e-02
      5.40540554e-02 0. 1.08108111e-01 3.24324340e-01 8.10810849e-02
      1.62162170e-01 8.10810849e-02 0.</_>
    <_>
      6.66666701e-02 5.00000045e-02 2.16666684e-01 6.66666701e-02
      8.33333358e-02 5.00000045e-02 2.16666684e-01 1.66666675e-02
      3.33333351e-02 6.66666701e-02 8.33333358e-02 5.00000045e-02</_>
    <_>
      9.75609720e-02 4.87804860e-02 9.75609720e-02 9.75609720e-02
      4.87804860e-02 9.75609720e-02 7.31707290e-02 1.21951215e-01
      1.95121944e-01 2.43902430e-02 4.87804860e-02 4.87804860e-02</_>
    <_>
      7.69230798e-02 7.69230798e-02 1.38461545e-01 7.69230798e-02
      9.23076943e-02 4.61538471e-02 1.23076923e-01 4.61538471e-02
      1.38461545e-01 1.23076923e-01 4.61538471e-02 1.53846154e-02</_>
    <_>
      8.19672048e-02 6.55737668e-02 1.31147534e-01 6.55737668e-02
      1.31147534e-01 3.27868834e-02 4.91803251e-02 8.19672048e-02
      2.13114738e-01 3.27868834e-02 6.55737668e-02 4.91803251e-02</_>
    <_>
      3.50877196e-02 1.57894731e-01 1.22807018e-01 1.22807018e-01
      5.26315793e-02 1.75438598e-02 1.75438598e-02 8.77192989e-02
      1.05263159e-01 1.40350878e-01 1.22807018e-01 1.75438598e-02</_>
    <_>
      2.17391308e-02 6.52173907e-02 1.08695656e-01 4.34782617e-02
      2.17391308e-02 0. 1.73913047e-01 1.30434781e-01 1.08695656e-01
      1.73913047e-01 8.69565234e-02 6.52173907e-02</_>
    <_>
      0. 0. 2.17391308e-02 1.73913047e-01 1.52173921e-01 1.73913047e-01
      6.52173907e-02 6.52173907e-02 1.30434781e-01 8.69565234e-02
      4.34782617e-02 8.69565234e-02</_>
    <_>
      5.33333346e-02 1.20000005e-01 1.20000005e-01 1.06666669e-01
      1.20000005e-01 1.33333337e-02 6.66666701e-02 3.99999991e-02
      1.06666669e-01 9.33333337e-02 6.66666701e-02 9.33333337e-02</_>
    <_>
      2.63157897e-02 1.05263159e-01 1.05263159e-01 1.97368428e-01
      7.89473653e-02 6.57894760e-02 2.63157897e-02 3.94736826e-02
      9.21052620e-02 1.44736841e-01 5.26315793e-02 6.57894760e-02</_>
    <_>
      7.69230798e-02 2.56410260e-02 7.69230798e-02 5.12820520e-02
      5.12820520e-02 1.02564104e-01 1.79487184e-01 2.30769232e-01
      1.28205135e-01 2.56410260e-02 2.56410260e-02 2.56410260e-02</_>
    <_>
      5.55555560e-02 1.11111112e-01 1.38888896e-01 2.77777780e-02
      8.33333358e-02 8.33333358e-02 0. 2.50000000e-01 1.94444448e-01 0.
      0. 5.55555560e-02</_>
    <_>
      5.08474559e-02 3.38983051e-02 8.47457647e-02 1.35593221e-01
      1.18644066e-01 1.69491529e-01 1.69491529e-01 3.38983051e-02
      1.18644066e-01 5.08474559e-02 1.69491526e-02 1.69491526e-02</_>
    <_>
      5.40540554e-02 5.40540554e-02 8.10810849e-02 5.40540554e-02
      5.40540554e-02 2.43243247e-01 1.35135144e-01 1.08108111e-01
      8.10810849e-02 5.40540554e-02 2.70270277e-02 5.40540554e-02</_>
    <_>
      9.37500000e-02 9.37500000e-02 6.25000000e-02 1.56250000e-01
      6.25000000e-02 3.12500000e-02 0. 3.12500000e-02 2.18750000e-01
      9.37500000e-02 6.25000000e-02 9.37500000e-02</_>
    <_>
      6.38297871e-02 8.51063803e-02 8.51063803e-02 1.27659574e-01
      1.27659574e-01 2.12765951e-02 8.51063803e-02 6.38297871e-02
      8.51063803e-02 1.27659574e-01 1.06382973e-01 2.12765951e-02</_>
    <_>
      1.12676054e-01 7.04225302e-02 1.12676054e-01 5.63380271e-02
      8.45070407e-02 7.04225302e-02 1.40845068e-02 5.63380271e-02
      1.54929578e-01 8.45070407e-02 1.26760557e-01 5.63380271e-02</_>
    <_>
      1.13207549e-01 1.13207549e-01 1.32075474e-01 1.13207549e-01
      5.66037744e-02 0. 7.54716992e-02 9.43396240e-02 1.13207549e-01
      5.66037744e-02 7.54716992e-02 5.66037744e-02</_>
    <_>
      0. 6.77966103e-02 5.08474559e-02 2.54237294e-01 3.38983051e-02
      5.08474559e-02 3.38983051e-02 6.77966103e-02 2.20338985e-01
      6.77966103e-02 1.01694912e-01 5.08474559e-02</_>
    <_>
      5.99999987e-02 1.40000001e-01 1.19999997e-01 1.59999996e-01
      3.99999991e-02 9.99999940e-02 7.99999982e-02 1.19999997e-01
      3.99999991e-02 9.99999940e-02 1.99999996e-02 1.99999996e-02</_>
    <_>
      1.30434781e-01 4.34782617e-02 1.08695656e-01 1.08695656e-01
      2.17391308e-02 6.52173907e-02 4.34782617e-02 1.08695656e-01
      6.52173907e-02 1.08695656e-01 1.30434781e-01 6.52173907e-02</_>
    <_>
      7.40740746e-02 5.55555560e-02 1.29629627e-01 1.29629627e-01
      3.70370373e-02 1.85185187e-02 5.55555560e-02 5.55555560e-02
      1.48148149e-01 1.66666672e-01 1.85185187e-02 1.11111112e-01</_>
    <_>
      7.31707290e-02 2.43902430e-02 1.70731694e-01 1.70731694e-01
      1.21951215e-01 4.87804860e-02 9.75609720e-02 2.43902430e-02
      4.87804860e-02 4.87804860e-02 1.46341458e-01 2.43902430e-02</_>
    <_>
      3.77358496e-02 3.77358496e-02 1.13207549e-01 9.43396240e-02
      5.66037744e-02 1.69811323e-01 1.88679248e-01 3.77358496e-02
      9.43396240e-02 3.77358496e-02 9.43396240e-02 3.77358496e-02</_>
    <_>
      0. 1.47058830e-01 2.94117648e-02 2.94117659e-01 5.88235296e-02
      1.17647059e-01 1.47058830e-01 5.88235296e-02 1.17647059e-01
      2.94117648e-02 0. 0.</_>
    <_>
      6.77966103e-02 1.35593221e-01 1.18644066e-01 6.77966103e-02
      6.77966103e-02 5.08474559e-02 1.69491526e-02 5.08474559e-02
      1.52542368e-01 1.18644066e-01 1.01694912e-01 5.08474559e-02</_>
    <_>
      9.37500000e-02 3.12500000e-02 3.12500000e-02 1.87500000e-01
      6.25000000e-02 1.25000000e-01 1.56250000e-01 1.25000000e-01
      9.37500000e-02 6.25000000e-02 3.12500000e-02 0.</_>
    <_>
      5.33333346e-02 9.33333337e-02 3.99999991e-02 1.06666669e-01
      9.33333337e-02 3.99999991e-02 0. 1.46666676e-01 1.86666667e-01
      9.33333337e-02 1.33333340e-01 1.33333337e-02</_>
    <_>
      5.79710156e-02 5.79710156e-02 1.01449281e-01 1.73913047e-01
      4.34782617e-02 7.24637657e-02 1.15942031e-01 1.15942031e-01
      2.89855078e-02 1.44927539e-02 1.30434781e-01 8.69565234e-02</_>
    <_>
      9.25925970e-02 1.85185187e-02 5.55555560e-02 1.66666672e-01
      7.40740746e-02 3.70370373e-02 1.11111112e-01 7.40740746e-02
      2.22222224e-01 1.11111112e-01 1.85185187e-02 1.85185187e-02</_>
    <_>
      3.84615399e-02 9.61538479e-02 1.34615391e-01 7.69230798e-02
      5.76923117e-02 1.92307699e-02 9.61538479e-02 1.34615391e-01
      1.92307696e-01 1.92307699e-02 1.15384623e-01 1.92307699e-02</_>
    <_>
      6.52173907e-02 8.69565234e-02 8.69565234e-02 1.95652172e-01
      2.17391308e-02 6.52173907e-02 1.73913047e-01 6.52173907e-02
      1.08695656e-01 4.34782617e-02 4.34782617e-02 4.34782617e-02</_>
    <_>
      8.19672048e-02 4.91803251e-02 1.63934410e-01 1.31147534e-01
      8.19672048e-02 4.91803251e-02 6.55737668e-02 8.19672048e-02
      9.83606502e-02 3.27868834e-02 9.83606502e-02 6.55737668e-02</_>
    <_>
      1.85185187e-02 7.40740746e-02 9.25925970e-02 2.96296299e-01
      5.55555560e-02 0. 0. 1.11111112e-01 1.85185194e-01 1.29629627e-01
      1.85185187e-02 1.85185187e-02</_>
    <_>
      1.57894731e-01 2.63157897e-02 1.57894731e-01 1.05263159e-01
      5.26315793e-02 5.26315793e-02 7.89473653e-02 2.63157897e-02
      7.89473653e-02 2.10526317e-01 2.63157897e-02 2.63157897e-02</_>
    <_>
      6.55737668e-02 8.19672048e-02 9.83606502e-02 3.27868834e-02
      4.91803251e-02 4.91803251e-02 1.63934417e-02 1.63934410e-01
      2.13114738e-01 8.19672048e-02 1.47540972e-01 0.</_>
    <_>
      3.99999991e-02 1.99999996e-02 7.99999982e-02 1.99999988e-01
      7.99999982e-02 5.99999987e-02 1.79999992e-01 5.99999987e-02
      1.19999997e-01 7.99999982e-02 1.99999996e-02 5.99999987e-02</_>
    <_>
      3.44827585e-02 1.37931034e-01 6.89655170e-02 1.03448272e-01
      6.89655170e-02 6.89655170e-02 6.89655170e-02 1.37931034e-01
      6.89655170e-02 6.89655170e-02 1.37931034e-01 3.44827585e-02</_>
    <_>
      1.48936167e-01 1.06382973e-01 1.27659574e-01 4.25531901e-02
      6.38297871e-02 0. 6.38297871e-02 2.34042540e-01 1.48936167e-01
      2.12765951e-02 0. 4.25531901e-02</_>
    <_>
      3.92156877e-02 5.88235334e-02 0. 1.17647067e-01 7.84313753e-02
      1.56862751e-01 1.56862751e-01 9.80392173e-02 3.92156877e-02
      1.37254909e-01 9.80392173e-02 1.96078438e-02</_>
    <_>
      1.29629627e-01 9.25925970e-02 1.29629627e-01 7.40740746e-02
      5.55555560e-02 5.55555560e-02 3.70370373e-02 7.40740746e-02
      1.11111112e-01 3.70370373e-02 9.25925970e-02 1.11111112e-01</_>
    <_>
      1.25000000e-01 1.07142866e-01 1.25000000e-01 1.42857149e-01
      5.35714328e-02 1.78571437e-02 1.42857149e-01 7.14285746e-02
      1.07142866e-01 7.14285746e-02 3.57142873e-02 0.</_>
    <_>
      7.01754391e-02 8.77192989e-02 3.50877196e-02 1.75438598e-01
      8.77192989e-02 7.01754391e-02 1.05263159e-01 1.75438598e-02
      5.26315793e-02 8.77192989e-02 1.40350878e-01 7.01754391e-02</_>
    <_>
      2.22222228e-02 1.33333340e-01 4.44444455e-02 6.66666701e-02
      2.22222228e-02 1.11111112e-01 2.66666681e-01 2.22222228e-02
      6.66666701e-02 4.44444455e-02 1.11111112e-01 8.88888910e-02</_>
    <_>
      5.88235334e-02 7.84313753e-02 1.37254909e-01 7.84313753e-02
      5.88235334e-02 1.96078438e-02 5.88235334e-02 7.84313753e-02
      1.56862751e-01 5.88235334e-02 1.56862751e-01 5.88235334e-02</_>
    <_>
      3.44827585e-02 6.89655170e-02 1.03448272e-01 1.72413796e-01
      5.17241359e-02 6.89655170e-02 3.44827585e-02 6.89655170e-02
      8.62068981e-02 1.55172408e-01 1.37931034e-01 1.72413792e-02</_>
    <_>
      9.37500000e-02 4.68750000e-02 7.81250000e-02 4.68750000e-02
      9.37500000e-02 1.40625000e-01 1.25000000e-01 4.68750000e-02
      7.81250000e-02 1.25000000e-01 7.81250000e-02 4.68750000e-02</_>
    <_>
      1.52173921e-01 1.30434781e-01 6.52173907e-02 4.34782617e-02
      1.30434781e-01 0. 6.52173907e-02 6.52173907e-02 1.52173921e-01
      6.52173907e-02 6.52173907e-02 6.52173907e-02</_>
    <_>
      5.35714328e-02 7.14285746e-02 1.42857149e-01 7.14285746e-02
      7.14285746e-02 8.92857164e-02 1.07142866e-01 1.07142866e-01
      8.92857164e-02 8.92857164e-02 7.14285746e-02 3.57142873e-02</_>
    <_>
      1.17647067e-01 7.84313753e-02 1.17647067e-01 3.92156877e-02
      1.96078438e-02 3.92156877e-02 1.17647067e-01 7.84313753e-02
      2.15686277e-01 1.96078438e-02 9.80392173e-02 5.88235334e-02</_>
    <_>
      7.01754391e-02 7.01754391e-02 5.26315793e-02 8.77192989e-02
      7.01754391e-02 1.22807018e-01 1.05263159e-01 1.22807018e-01
      8.77192989e-02 8.77192989e-02 7.01754391e-02 5.26315793e-02</_>
    <_>
      7.69230798e-02 7.69230798e-02 1.15384623e-01 7.69230798e-02
      5.76923117e-02 3.84615399e-02 1.92307699e-02 7.69230798e-02
      2.30769247e-01 1.15384623e-01 1.92307699e-02 9.61538479e-02</_>
    <_>
      1.13207549e-01 7.54716992e-02 1.88679248e-02 1.13207549e-01
      1.88679248e-02 1.32075474e-01 1.32075474e-01 1.88679248e-01
      7.54716992e-02 7.54716992e-02 1.88679248e-02 3.77358496e-02</_>
    <_>
      3.70370373e-02 7.40740746e-02 3.70370373e-02 7.40740746e-02
      3.70370373e-02 1.11111112e-01 1.85185194e-01 3.70370373e-02
      1.11111112e-01 7.40740746e-02 1.85185194e-01 3.70370373e-02</_>
    <_>
      4.91803251e-02 8.19672048e-02 1.47540972e-01 3.27868834e-02
      4.91803251e-02 4.91803251e-02 1.96721300e-01 8.19672048e-02
      9.83606502e-02 3.27868834e-02 9.83606502e-02 8.19672048e-02</_>
    <_>
      7.84313753e-02 3.92156877e-02 1.56862751e-01 5.88235334e-02
      5.88235334e-02 5.88235334e-02 5.88235334e-02 7.84313753e-02
      9.80392173e-02 1.37254909e-01 1.37254909e-01 3.92156877e-02</_>
    <_>
      8.57142881e-02 5.71428575e-02 1.14285715e-01 0. 2.85714287e-02
      2.00000003e-01 8.57142881e-02 1.71428576e-01 1.42857149e-01
      5.71428575e-02 2.85714287e-02 2.85714287e-02</_>
    <_>
      2.50000004e-02 2.50000004e-02 5.00000007e-02 1.50000006e-01 0.
      1.50000006e-01 7.50000030e-02 1.25000000e-01 2.50000000e-01
      1.00000001e-01 5.00000007e-02 0.</_>
    <_>
      0. 1.05263159e-01 7.01754391e-02 5.26315793e-02 1.05263159e-01
      3.50877196e-02 7.01754391e-02 1.05263159e-01 1.92982465e-01
      1.92982465e-01 3.50877196e-02 3.50877196e-02</_>
    <_>
      2.27272734e-02 6.81818202e-02 0. 1.13636367e-01 6.81818202e-02
      1.36363640e-01 2.50000000e-01 6.81818202e-02 9.09090936e-02
      6.81818202e-02 6.81818202e-02 4.54545468e-02</_>
    <_>
      3.27868834e-02 3.27868834e-02 0. 8.19672048e-02 6.55737668e-02
      9.83606502e-02 3.27868834e-02 2.45901629e-01 2.13114738e-01
      8.19672048e-02 3.27868834e-02 8.19672048e-02</_>
    <_>
      3.44827585e-02 3.44827585e-02 6.89655170e-02 1.37931034e-01
      5.17241359e-02 1.72413792e-02 3.44827585e-02 8.62068981e-02
      2.58620679e-01 1.37931034e-01 6.89655170e-02 6.89655170e-02</_>
    <_>
      0. 5.00000045e-02 3.33333351e-02 1.83333337e-01 3.33333351e-02
      8.33333358e-02 1.66666672e-01 8.33333358e-02 2.16666684e-01
      1.00000009e-01 5.00000045e-02 0.</_>
    <_>
      7.54716992e-02 1.32075474e-01 1.88679248e-02 1.32075474e-01
      7.54716992e-02 1.88679248e-02 3.77358496e-02 2.45283023e-01
      1.50943398e-01 5.66037744e-02 5.66037744e-02 0.</_>
    <_>
      1.00000001e-01 1.00000001e-01 1.14285715e-01 8.57142881e-02
      7.14285746e-02 1.42857144e-02 5.71428575e-02 1.14285715e-01
      1.28571436e-01 7.14285746e-02 1.14285715e-01 2.85714287e-02</_>
    <_>
      6.12244904e-02 6.12244904e-02 6.12244904e-02 1.02040812e-01
      6.12244904e-02 4.08163257e-02 2.04081628e-02 6.12244904e-02
      3.26530606e-01 6.12244904e-02 4.08163257e-02 1.02040812e-01</_>
    <_>
      7.50000030e-02 1.50000006e-01 1.00000001e-01 7.50000030e-02
      8.74999985e-02 1.25000002e-02 0. 1.12500004e-01 1.25000000e-01
      5.00000007e-02 1.12500004e-01 1.00000001e-01</_>
    <_>
      9.25925970e-02 5.55555560e-02 5.55555560e-02 1.29629627e-01
      5.55555560e-02 9.25925970e-02 3.70370373e-02 1.11111112e-01
      9.25925970e-02 5.55555560e-02 1.48148149e-01 7.40740746e-02</_>
    <_>
      2.04081628e-02 6.12244904e-02 4.08163257e-02 1.02040812e-01
      2.04081628e-02 1.02040812e-01 1.22448981e-01 1.22448981e-01
      1.22448981e-01 1.83673471e-01 1.02040812e-01 0.</_>
    <_>
      1.88679248e-02 0. 1.88679248e-02 1.32075474e-01 3.77358496e-02
      1.88679248e-01 1.13207549e-01 1.13207549e-01 1.32075474e-01
      2.26415098e-01 1.88679248e-02 0.</_>
    <_>
      5.45454547e-02 1.09090909e-01 1.81818176e-02 1.81818172e-01
      9.09090862e-02 7.27272704e-02 1.09090909e-01 1.81818176e-02
      1.27272725e-01 1.45454541e-01 1.81818176e-02 5.45454547e-02</_>
    <_>
      5.00000007e-02 1.25000000e-01 5.00000007e-02 1.37500003e-01
      6.25000000e-02 5.00000007e-02 7.50000030e-02 8.74999985e-02
      1.37500003e-01 1.25000000e-01 5.00000007e-02 5.00000007e-02</_>
    <_>
      0. 6.25000000e-02 6.25000000e-02 1.87500000e-01 6.25000000e-02
      2.50000000e-01 1.87500000e-01 6.25000000e-02 3.12500000e-02
      6.25000000e-02 0. 3.12500000e-02</_>
    <_>
      1.75438598e-02 7.01754391e-02 8.77192989e-02 1.22807018e-01
      1.75438598e-02 1.75438598e-02 5.26315793e-02 1.75438598e-01
      2.28070170e-01 1.92982465e-01 1.75438598e-02 0.</_>
    <_>
      9.52381045e-02 7.93650821e-02 1.42857149e-01 7.93650821e-02
      1.11111119e-01 3.17460336e-02 7.93650821e-02 1.58730164e-01
      7.93650821e-02 0. 9.52381045e-02 4.76190522e-02</_>
    <_>
      1.16666675e-01 1.00000009e-01 1.50000006e-01 1.16666675e-01
      1.33333340e-01 1.66666675e-02 0. 6.66666701e-02 1.50000006e-01 0.
      1.50000006e-01 0.</_>
    <_>
      2.81690136e-02 4.22535203e-02 5.63380271e-02 9.85915512e-02
      1.40845068e-02 1.12676054e-01 7.04225302e-02 9.85915512e-02
      1.40845060e-01 1.97183102e-01 9.85915512e-02 4.22535203e-02</_>
    <_>
      1.12903222e-01 6.45161271e-02 1.61290318e-01 1.12903222e-01
      1.12903222e-01 0. 4.83870953e-02 1.45161286e-01 1.45161286e-01 0.
      9.67741907e-02 0.</_>
    <_>
      2.06896544e-01 6.89655170e-02 2.06896544e-01 0. 0. 3.44827585e-02
      3.44827585e-02 0. 1.72413796e-01 1.37931034e-01 0. 1.37931034e-01</_>
    <_>
      8.06451589e-02 3.22580636e-02 9.67741907e-02 8.06451589e-02 0.
      1.29032254e-01 1.61290318e-01 4.83870953e-02 8.06451589e-02
      1.29032254e-01 1.12903222e-01 4.83870953e-02</_>
    <_>
      9.09090936e-02 2.27272734e-02 9.09090936e-02 1.36363640e-01
      4.54545468e-02 1.36363640e-01 1.36363640e-01 1.59090906e-01
      6.81818202e-02 2.27272734e-02 0. 9.09090936e-02</_>
    <_>
      0. 0. 3.12500000e-02 1.87500000e-01 0. 3.12500000e-02
      6.25000000e-02 1.87500000e-01 1.25000000e-01 3.12500000e-01
      3.12500000e-02 3.12500000e-02</_>
    <_>
      3.63636352e-02 0. 9.09090862e-02 5.45454547e-02 0. 9.09090862e-02
      1.27272725e-01 2.36363634e-01 1.99999988e-01 7.27272704e-02
      7.27272704e-02 1.81818176e-02</_>
    <_>
      1.22807018e-01 5.26315793e-02 1.05263159e-01 1.05263159e-01
      8.77192989e-02 5.26315793e-02 3.50877196e-02 5.26315793e-02
      1.57894731e-01 7.01754391e-02 1.40350878e-01 1.75438598e-02</_>
    <_>
      1.02040812e-01 1.02040812e-01 4.08163257e-02 8.16326514e-02
      6.12244904e-02 1.22448981e-01 1.22448981e-01 1.83673471e-01
      6.12244904e-02 6.12244904e-02 2.04081628e-02 4.08163257e-02</_>
    <_>
      8.10810849e-02 1.48648649e-01 1.08108111e-01 6.75675720e-02
      6.75675720e-02 6.75675720e-02 2.70270277e-02 8.10810849e-02
      9.45945978e-02 8.10810849e-02 1.35135144e-01 4.05405425e-02</_>
    <_>
      3.70370373e-02 5.55555560e-02 3.70370373e-02 2.03703701e-01
      1.85185187e-02 5.55555560e-02 3.70370373e-02 1.85185194e-01
      1.85185194e-01 1.66666672e-01 0. 1.85185187e-02</_>
    <_>
      0. 0. 0. 7.69230798e-02 0. 1.28205135e-01 2.05128208e-01
      1.28205135e-01 2.05128208e-01 2.56410271e-01 0. 0.</_>
    <_>
      9.25925970e-02 5.55555560e-02 7.40740746e-02 7.40740746e-02
      1.11111112e-01 7.40740746e-02 9.25925970e-02 3.70370373e-02
      2.03703701e-01 9.25925970e-02 9.25925970e-02 0.</_>
    <_>
      1.61290318e-01 9.67741907e-02 1.61290318e-01 0. 9.67741907e-02
      9.67741907e-02 9.67741907e-02 9.67741907e-02 9.67741907e-02 0. 0.
      9.67741907e-02</_>
    <_>
      4.25531901e-02 8.51063803e-02 4.25531901e-02 1.70212761e-01
      1.48936167e-01 1.27659574e-01 1.27659574e-01 1.06382973e-01
      4.25531901e-02 6.38297871e-02 2.12765951e-02 2.12765951e-02</_>
    <_>
      0. 4.16666679e-02 0. 6.94444478e-02 5.55555560e-02 1.38888890e-02
      1.38888890e-02 3.61111104e-01 2.50000000e-01 1.38888896e-01
      2.77777780e-02 2.77777780e-02</_>
    <_>
      6.38297871e-02 4.25531901e-02 6.38297871e-02 2.12765951e-02
      4.25531901e-02 8.51063803e-02 1.70212761e-01 8.51063803e-02
      2.34042540e-01 8.51063803e-02 2.12765951e-02 8.51063803e-02</_>
    <_>
      7.40740746e-02 1.29629627e-01 3.70370373e-02 3.14814806e-01
      5.55555560e-02 3.70370373e-02 0. 1.85185187e-02 9.25925970e-02
      2.22222224e-01 1.85185187e-02 0.</_>
    <_>
      9.09090936e-02 3.03030312e-02 9.09090936e-02 9.09090936e-02 0.
      1.21212125e-01 9.09090936e-02 9.09090936e-02 2.42424250e-01
      3.03030312e-02 0. 1.21212125e-01</_>
    <_>
      8.77192989e-02 1.05263159e-01 7.01754391e-02 5.26315793e-02
      1.57894731e-01 7.01754391e-02 1.40350878e-01 3.50877196e-02
      1.40350878e-01 1.75438598e-02 5.26315793e-02 7.01754391e-02</_>
    <_>
      6.25000000e-02 4.16666679e-02 4.16666679e-02 1.04166672e-01
      2.08333340e-02 2.08333340e-02 4.16666679e-02 2.50000000e-01
      2.91666687e-01 6.25000000e-02 4.16666679e-02 2.08333340e-02</_>
    <_>
      4.47761193e-02 4.47761193e-02 5.97014911e-02 1.49253726e-01
      4.47761193e-02 7.46268630e-02 8.95522386e-02 7.46268630e-02
      1.94029853e-01 5.97014911e-02 1.34328350e-01 2.98507456e-02</_>
    <_>
      6.89655170e-02 3.44827585e-02 6.89655170e-02 2.41379306e-01
      3.44827585e-02 6.89655170e-02 2.06896544e-01 0. 3.44827585e-02
      2.06896544e-01 0. 3.44827585e-02</_>
    <_>
      1.11111112e-01 1.85185187e-02 9.25925970e-02 9.25925970e-02
      5.55555560e-02 1.11111112e-01 1.85185194e-01 1.11111112e-01
      9.25925970e-02 5.55555560e-02 3.70370373e-02 3.70370373e-02</_>
    <_>
      8.92857164e-02 1.07142866e-01 7.14285746e-02 1.42857149e-01
      7.14285746e-02 0. 1.78571437e-02 3.57142873e-02 1.42857149e-01
      7.14285746e-02 2.32142866e-01 1.78571437e-02</_>
    <_>
      4.54545468e-02 1.21212125e-01 9.09090936e-02 1.06060609e-01
      1.21212125e-01 1.51515156e-02 3.03030312e-02 7.57575780e-02
      1.36363640e-01 7.57575780e-02 1.21212125e-01 6.06060624e-02</_>
    <_>
      1.25000000e-01 6.25000000e-02 5.00000007e-02 3.75000015e-02
      1.12500004e-01 3.75000015e-02 6.25000000e-02 8.74999985e-02
      1.62500009e-01 7.50000030e-02 1.50000006e-01 3.75000015e-02</_>
    <_>
      9.63855386e-02 9.63855386e-02 6.02409616e-02 1.08433731e-01
      1.20481923e-01 1.20481923e-02 1.20481923e-02 3.61445770e-02
      1.80722892e-01 6.02409616e-02 1.08433731e-01 1.08433731e-01</_>
    <_>
      1.35135144e-01 1.48648649e-01 1.21621624e-01 6.75675720e-02
      1.08108111e-01 2.70270277e-02 8.10810849e-02 8.10810849e-02
      9.45945978e-02 4.05405425e-02 6.75675720e-02 2.70270277e-02</_>
    <_>
      3.50877196e-02 0. 3.50877196e-02 7.01754391e-02 1.75438598e-02
      1.22807018e-01 1.40350878e-01 2.63157904e-01 2.63157904e-01
      3.50877196e-02 0. 1.75438598e-02</_>
    <_>
      4.34782617e-02 5.79710156e-02 8.69565234e-02 5.79710156e-02
      2.89855078e-02 4.34782617e-02 8.69565234e-02 1.73913047e-01
      1.01449281e-01 1.88405797e-01 1.01449281e-01 2.89855078e-02</_>
    <_>
      1.78571437e-02 1.78571437e-02 3.57142873e-02 7.14285746e-02
      1.78571437e-02 1.78571433e-01 7.14285746e-02 8.92857164e-02
      5.35714328e-02 3.75000030e-01 0. 7.14285746e-02</_>
    <_>
      5.26315793e-02 5.26315793e-02 7.89473653e-02 1.57894731e-01
      2.63157897e-02 0. 2.63157897e-02 1.57894731e-01 2.89473683e-01
      2.63157897e-02 2.63157897e-02 1.05263159e-01</_>
    <_>
      0. 5.40540554e-02 5.40540554e-02 5.40540554e-02 5.40540554e-02
      1.35135144e-01 2.70270277e-02 1.35135144e-01 1.08108111e-01
      1.62162170e-01 2.16216221e-01 0.</_>
    <_>
      7.01754391e-02 7.01754391e-02 8.77192989e-02 1.05263159e-01
      1.05263159e-01 7.01754391e-02 5.26315793e-02 1.22807018e-01
      1.57894731e-01 1.75438598e-02 1.05263159e-01 3.50877196e-02</_>
    <_>
      0. 0. 9.67741907e-02 1.29032254e-01 3.22580636e-02 1.93548381e-01
      3.22580636e-02 9.67741907e-02 1.93548381e-01 1.29032254e-01
      3.22580636e-02 6.45161271e-02</_>
    <_>
      6.12244904e-02 1.63265303e-01 4.08163257e-02 1.02040812e-01
      4.08163257e-02 0. 0. 2.04081625e-01 1.42857134e-01 1.42857134e-01
      8.16326514e-02 2.04081628e-02</_>
    <_>
      1.01694912e-01 1.35593221e-01 1.35593221e-01 5.08474559e-02
      1.01694912e-01 1.01694912e-01 5.08474559e-02 5.08474559e-02
      1.01694912e-01 6.77966103e-02 6.77966103e-02 3.38983051e-02</_>
    <_>
      5.88235334e-02 1.17647067e-01 7.84313753e-02 1.76470593e-01
      5.88235334e-02 7.84313753e-02 5.88235334e-02 1.37254909e-01
      9.80392173e-02 9.80392173e-02 3.92156877e-02 0.</_>
    <_>
      1.96078438e-02 3.92156877e-02 3.92156877e-02 2.15686277e-01
      1.96078438e-02 9.80392173e-02 7.84313753e-02 1.17647067e-01
      1.17647067e-01 1.96078435e-01 3.92156877e-02 1.96078438e-02</_>
    <_>
      3.38983051e-02 5.08474559e-02 3.38983051e-02 1.86440676e-01
      1.69491526e-02 6.77966103e-02 5.08474559e-02 1.35593221e-01
      1.69491529e-01 1.18644066e-01 1.18644066e-01 1.69491526e-02</_>
    <_>
      9.75609720e-02 1.21951215e-01 7.31707290e-02 4.87804860e-02
      9.75609720e-02 1.46341458e-01 7.31707290e-02 2.43902430e-02
      1.46341458e-01 4.87804860e-02 7.31707290e-02 4.87804860e-02</_>
    <_>
      0. 2.50000004e-02 7.50000030e-02 1.00000001e-01 2.50000004e-02
      5.00000007e-02 1.00000001e-01 1.50000006e-01 1.25000000e-01
      2.25000009e-01 5.00000007e-02 7.50000030e-02</_>
    <_>
      1.16279066e-01 4.65116277e-02 1.16279066e-01 1.16279066e-01
      2.32558139e-02 1.16279066e-01 1.16279066e-01 2.32558139e-02
      1.39534891e-01 9.30232555e-02 4.65116277e-02 4.65116277e-02</_>
    <_>
      4.25531901e-02 8.51063803e-02 0. 1.27659574e-01 0. 1.06382973e-01
      1.27659574e-01 1.27659574e-01 2.55319148e-01 4.25531901e-02
      6.38297871e-02 2.12765951e-02</_>
    <_>
      1.04166672e-01 2.08333340e-02 1.04166672e-01 2.08333340e-02
      8.33333358e-02 0. 8.33333358e-02 2.70833343e-01 1.25000000e-01
      6.25000000e-02 8.33333358e-02 4.16666679e-02</_>
    <_>
      3.27868834e-02 1.14754096e-01 4.91803251e-02 1.31147534e-01
      1.47540972e-01 4.91803251e-02 1.63934417e-02 8.19672048e-02
      1.96721300e-01 9.83606502e-02 1.63934417e-02 6.55737668e-02</_>
    <_>
      0. 4.41176482e-02 5.88235296e-02 1.61764711e-01 2.94117648e-02
      7.35294148e-02 8.82352963e-02 1.02941178e-01 2.50000000e-01
      8.82352963e-02 2.94117648e-02 7.35294148e-02</_>
    <_>
      9.67741907e-02 9.67741907e-02 6.45161271e-02 6.45161271e-02
      6.45161271e-02 1.29032254e-01 1.61290318e-02 6.45161271e-02
      2.41935477e-01 6.45161271e-02 6.45161271e-02 3.22580636e-02</_>
    <_>
      5.26315793e-02 8.77192989e-02 8.77192989e-02 8.77192989e-02
      1.75438598e-02 1.75438598e-02 3.50877196e-02 1.05263159e-01
      1.57894731e-01 1.57894731e-01 8.77192989e-02 1.05263159e-01</_>
    <_>
      1.25000000e-01 7.50000030e-02 1.00000001e-01 1.00000001e-01
      2.50000004e-02 1.00000001e-01 5.00000007e-02 1.25000000e-01
      1.00000001e-01 0. 1.25000000e-01 7.50000030e-02</_>
    <_>
      0. 0. 2.77777780e-02 1.38888896e-01 5.55555560e-02 8.33333358e-02
      2.77777791e-01 1.11111112e-01 2.77777791e-01 0. 2.77777780e-02 0.</_>
    <_>
      2.27272734e-02 4.54545468e-02 2.27272734e-02 1.13636367e-01
      4.54545468e-02 1.13636367e-01 1.59090906e-01 4.54545468e-02
      1.81818187e-01 2.27272734e-01 0. 2.27272734e-02</_>
    <_>
      5.76923117e-02 7.69230798e-02 7.69230798e-02 1.53846160e-01
      5.76923117e-02 9.61538479e-02 1.15384623e-01 7.69230798e-02
      1.53846160e-01 5.76923117e-02 1.92307699e-02 5.76923117e-02</_>
    <_>
      5.55555560e-02 1.85185194e-01 1.29629627e-01 1.11111112e-01
      7.40740746e-02 0. 1.85185187e-02 9.25925970e-02 1.85185194e-01
      1.85185187e-02 9.25925970e-02 3.70370373e-02</_>
    <_>
      6.89655170e-02 1.72413796e-01 1.72413796e-01 5.17241359e-02
      1.20689653e-01 1.72413792e-02 3.44827585e-02 3.44827585e-02
      1.03448272e-01 1.72413792e-02 1.20689653e-01 8.62068981e-02</_>
    <_>
      3.03030312e-02 7.57575780e-02 4.54545468e-02 7.57575780e-02
      6.06060624e-02 1.21212125e-01 9.09090936e-02 4.54545468e-02
      2.42424250e-01 6.06060624e-02 7.57575780e-02 7.57575780e-02</_>
    <_>
      9.83606502e-02 4.91803251e-02 8.19672048e-02 6.55737668e-02
      4.91803251e-02 3.27868834e-02 1.47540972e-01 1.31147534e-01
      2.29508191e-01 0. 3.27868834e-02 8.19672048e-02</_>
    <_>
      9.80392173e-02 1.56862751e-01 1.37254909e-01 1.96078438e-02
      5.88235334e-02 5.88235334e-02 3.92156877e-02 3.92156877e-02
      9.80392173e-02 7.84313753e-02 1.56862751e-01 5.88235334e-02</_>
    <_>
      0. 0. 3.99999991e-02 2.19999999e-01 0. 1.40000001e-01
      1.99999996e-02 1.59999996e-01 1.40000001e-01 2.59999990e-01 0.
      1.99999996e-02</_>
    <_>
      8.69565234e-02 1.73913047e-01 6.52173907e-02 4.34782617e-02
      1.73913047e-01 1.08695656e-01 1.08695656e-01 4.34782617e-02 0.
      4.34782617e-02 6.52173907e-02 8.69565234e-02</_>
    <_>
      2.08333340e-02 6.25000000e-02 0. 1.25000000e-01 0. 1.66666672e-01
      1.25000000e-01 1.04166672e-01 1.25000000e-01 1.25000000e-01
      1.25000000e-01 2.08333340e-02</_>
    <_>
      1.04477607e-01 8.95522386e-02 2.98507456e-02 8.95522386e-02
      1.19402982e-01 1.19402982e-01 1.64179102e-01 5.97014911e-02
      1.19402982e-01 4.47761193e-02 2.98507456e-02 2.98507456e-02</_>
    <_>
      5.88235296e-02 7.35294148e-02 7.35294148e-02 4.41176482e-02
      4.41176482e-02 1.02941178e-01 1.76470593e-01 1.47058830e-01
      1.61764711e-01 5.88235296e-02 5.88235296e-02 0.</_></support_vectors>
  <decision_functions>
    <_>
      <sv_count>422</sv_count>
      <rho>-1.6334713673266595e+01</rho>
      <alpha>
        3.2901647262251601e+01 4.6698860612200193e+01 50. 50. 50. 50.
        3.7323769321075446e+01 50. 50. 50. 1.9648974994883144e+01 50.
        50. 50. 50. 50. 50. 1.9689239871132155e+01 50. 50.
        4.4441807627169794e+01 50. 50. 50. 50. 50. 50. 50. 50.
        2.3912092980924278e+01 50. 4.1622387258092736e+01 50. 50. 50.
        50. 50. 50. 50. 50. 50. 50. 50. 50. 50. 50. 50. 50. 50. 50. 50.
        50. 50. 50. 50. 50. 1.3040523986467207e+01 50. 50. 50. 50. 50.
        50. 50. 4.0382634193545009e+01 50. 50. 50. 50.
        4.7040808789166000e+01 50. 2.7290788053126022e+01
        7.5004007666877843e+00 50. 50. 3.9579808775664546e+01 50.
        4.7750726996946625e+01 50. 50. 50. 50. 50. 50. 50. 50. 50. 50.
        50. 50. 50. 50. 50. 50. 50. 50. 50. 50. 50. 50.
        3.1060367116222423e+01 50. 50. 50. 50. 50. 50. 50. 50. 50. 50.
        50. 50. 50. 50. 50. 50. 50. 50. 50. 50. 50. 50. 50. 50. 50. 50.
        1.5718517124381801e+01 50. 50. 50. 50. 50. 50. 50. 50. 50. 50.
        50. 50. 50. 50. 50. 50. 50. 50. 50. 50. 50. 50. 50. 50. 50. 50.
        50. 50. 50. 50. 50. 9.7020843197602513e+00
        3.0225764512668736e+01 50. 2.8187189389023509e+01 50. 50. 50.
        50. 50. 50. 50. 50. 50. 50. 50. 50. 50. 50. 50. 50. 50. 50. 50.
        50. 50. 50. 50. 50. 50. 50. 50. 8.2653474879803568e+00 50. 50.
        50. 50. 50. 50. 50. 50. 50. 50. 50. 50. 50. 50. 50. -50. -50.
        -50. -50. -50. -50. -50. -50. -50. -50. -50.
        -2.3167367853520663e+01 -50. -50. -2.8146282365290954e+01 -50.
        -50. -50. -50. -50. -50. -50. -50. -50. -50. -50. -50. -50. -50.
        -50. -50. -4.5898936958214591e+01 -3.1367742697960416e+01 -50.
        -50. -50. -50. -50. -50. -50. -2.4667206513690338e+01 -50.
        -3.6631794458795319e+01 -50. -50. -50. -50. -50. -50. -50. -50.
        -50. -50. -50. -50. -50. -50. -50. -50. -50. -50. -50. -50. -50.
        -50. -50. -2.8459308383641497e+00 -50. -50. -50.
        -4.1697791064873641e+01 -50. -50. -50. -50.
        -1.4954614353610538e+01 -50. -50. -50. -50. -50. -50. -50.
        -3.8550276981730384e+01 -50. -50. -50. -50.
        -2.7666585563788040e+01 -50. -50. -50. -50.
        -4.5277623716754647e+01 -50. -3.6907046500220119e+01 -50.
        -3.4590799181118342e+01 -50. -50. -50. -50. -50. -50. -50. -50.
        -8.2411128861806375e+00 -50. -50. -50. -50. -50. -50. -50. -50.
        -50. -50. -50. -50. -50. -50. -50. -50. -50. -50. -50. -50.
        -3.2476651969534425e+00 -50. -50. -2.1688565156988268e+01 -50.
        -50. -50. -4.4854142989154198e+01 -1.9240366560141393e+01 -50.
        -50. -7.7753406043534818e+00 -2.0843859029274135e+01 -50.
        -2.3277298396648785e+01 -4.0592222208355082e+01 -50. -50. -50.
        -50. -50. -50. -50. -9.8133425763422686e+00 -50. -50. -50. -50.
        -50. -6.8143634106259627e+00 -50. -50. -50. -50. -50. -50.
        -2.3665790730701836e+01 -50. -50. -50. -50. -50. -50. -50. -50.
        -50. -2.2648103731509394e+01 -50. -6.1707265124712061e+00 -50.
        -2.7275220701076005e+01 -50. -50. -50. -1.6798833686627532e+01
        -50. -50. -50. -50. -50. -1.1669452153655499e+01 -50. -50.
        -1.3084836013828301e+01 -50. -4.4871270502738547e+01 -50. -50.
        -50. -50. -50. -50. -50. -50. -50. -50. -50. -50.
        -3.8258192709767449e+01 -50. -50. -50. -9.4156790074472099e+00
        -50. -50. -3.1174848564245956e+01 -2.8192509062350847e+01 -50.
        -50.</alpha>
      <index>
        214 229 225 223 222 218 211 210 209 207 204 203 202 250 270 268
        266 264 263 261 259 258 256 254 252 200 249 247 245 243 241 239
        237 234 232 168 164 162 160 157 155 153 151 169 148 146 143 141
        140 138 136 134 132 184 198 196 194 193 191 190 188 186 179 175
        173 363 380 378 376 375 373 371 369 368 367 360 359 357 356 354
        352 348 346 400 420 419 417 414 412 410 408 406 404 402 344 398
        396 395 393 391 389 387 385 384 290 310 307 305 304 302 301 299
        297 295 294 292 311 288 286 285 283 281 279 277 275 273 328 341
        339 338 337 336 334 332 330 1 327 324 321 319 317 314 313 35 30
        90 32 88 33 29 87 37 84 83 20 102 100 23 99 25 96 94 51 47 49 63
        45 53 56 58 74 79 39 77 75 41 42 71 69 44 67 116 125 7 17 115 4
        111 109 121 13 14 127 18 107 3 113 9 124 129 19 104 122 117 11
        119 320 6 409 322 326 323 43 407 325 10 8 405 40 329 403 331 300
        306 418 52 303 54 50 2 298 421 55 296 131 0 411 318 316 46 315
        413 5 312 415 48 309 416 308 362 366 27 365 364 28 383 386 361
        358 16 374 379 21 377 381 22 382 372 24 370 26 340 343 342 397
        12 38 399 335 401 350 388 355 31 353 390 351 15 333 392 349 34
        347 394 345 36 103 98 189 187 101 185 183 182 105 181 106 180
        178 108 177 208 92 206 205 93 201 176 199 95 197 195 97 192 154
        120 152 150 149 147 123 145 144 156 142 126 139 128 137 135 130
        133 114 174 110 172 171 170 112 167 166 165 163 161 159 158 118
        269 267 265 262 66 260 65 68 257 70 255 253 72 251 73 280 293
        291 59 289 287 60 284 282 61 278 62 276 274 64 272 271 226 224
        85 221 220 86 219 217 227 216 215 213 212 89 91 78 248 246 244
        76 242 240 238 236 57 235 233 80 231 230 81 228 82</index></_></decision_functions></opencv_ml_svm>
</opencv_storage>
